{"learner":{"attributes":{"scikit_learn":"{\"_estimator_type\": \"classifier\"}"},"feature_names":["url_length","domain_length","path_length","num_dots","num_hyphens","num_underscores","num_slashes","num_digits_in_url","num_subdomains","has_https","has_http","domain_entropy","url_entropy","path_entropy","num_brand_keywords","path_depth","num_domain_tokens","longest_domain_token"],"feature_types":["int","int","int","int","int","int","int","int","int","int","int","float","float","float","int","int","int","int"],"gradient_booster":{"model":{"gbtree_model_param":{"num_parallel_tree":"1","num_trees":"300"},"iteration_indptr":[0,1,2,3,4,5,6,7,8,9,10,11,12,13,14,15,16,17,18,19,20,21,22,23,24,25,26,27,28,29,30,31,32,33,34,35,36,37,38,39,40,41,42,43,44,45,46,47,48,49,50,51,52,53,54,55,56,57,58,59,60,61,62,63,64,65,66,67,68,69,70,71,72,73,74,75,76,77,78,79,80,81,82,83,84,85,86,87,88,89,90,91,92,93,94,95,96,97,98,99,100,101,102,103,104,105,106,107,108,109,110,111,112,113,114,115,116,117,118,119,120,121,122,123,124,125,126,127,128,129,130,131,132,133,134,135,136,137,138,139,140,141,142,143,144,145,146,147,148,149,150,151,152,153,154,155,156,157,158,159,160,161,162,163,164,165,166,167,168,169,170,171,172,173,174,175,176,177,178,179,180,181,182,183,184,185,186,187,188,189,190,191,192,193,194,195,196,197,198,199,200,201,202,203,204,205,206,207,208,209,210,211,212,213,214,215,216,217,218,219,220,221,222,223,224,225,226,227,228,229,230,231,232,233,234,235,236,237,238,239,240,241,242,243,244,245,246,247,248,249,250,251,252,253,254,255,256,257,258,259,260,261,262,263,264,265,266,267,268,269,270,271,272,273,274,275,276,277,278,279,280,281,282,283,284,285,286,287,288,289,290,291,292,293,294,295,296,297,298,299,300],"tree_info":[0,0,0,0,0,0,0,0,0,0,0,0,0,0,0,0,0,0,0,0,0,0,0,0,0,0,0,0,0,0,0,0,0,0,0,0,0,0,0,0,0,0,0,0,0,0,0,0,0,0,0,0,0,0,0,0,0,0,0,0,0,0,0,0,0,0,0,0,0,0,0,0,0,0,0,0,0,0,0,0,0,0,0,0,0,0,0,0,0,0,0,0,0,0,0,0,0,0,0,0,0,0,0,0,0,0,0,0,0,0,0,0,0,0,0,0,0,0,0,0,0,0,0,0,0,0,0,0,0,0,0,0,0,0,0,0,0,0,0,0,0,0,0,0,0,0,0,0,0,0,0,0,0,0,0,0,0,0,0,0,0,0,0,0,0,0,0,0,0,0,0,0,0,0,0,0,0,0,0,0,0,0,0,0,0,0,0,0,0,0,0,0,0,0,0,0,0,0,0,0,0,0,0,0,0,0,0,0,0,0,0,0,0,0,0,0,0,0,0,0,0,0,0,0,0,0,0,0,0,0,0,0,0,0,0,0,0,0,0,0,0,0,0,0,0,0,0,0,0,0,0,0,0,0,0,0,0,0,0,0,0,0,0,0,0,0,0,0,0,0,0,0,0,0,0,0,0,0,0,0,0,0,0,0,0,0,0,0,0,0,0,0,0,0,0,0,0,0,0,0],"trees":[{"base_weights":[-1.0469203E-7,-1.910584E0,9.3616813E-1,3.9811575E-1,-1.958609E0,4.836482E-1,1.9426275E0,3.8974175E-1,-1.9673629E0,9.388169E-1,-3.73512E-1,1.9880875E0,1.8735981E0,-1.9755453E0,4.8274925E-1,3.948289E-1,6.9105554E-1,-9.765477E-1,2.0722882E-1,1.9959588E0,1.7089852E0,1.4380857E0,1.9321195E0,-1.9816114E0,-1.3578887E0,-4.8544607E-1,1.2180358E0,-1.1607274E0,1.1422983E0,-1.3661102E0,6.1753005E-1,9.4643474E-1,-2.7296144E-1,1.997041E0,9.0908253E-1,1.23344E0,3.9661545E-1,1.7878515E0,-3.4407478E-2,1.9794812E0,1.8024714E0,-1.9836872E0,-1.2400093E0,-7.702797E-1,-1.7932911E0,2.4241528E-1,-3.2195294E-1,-1.3333412E0,1.716805E0,-1.471352E0,1.6199709E0,7.171534E-1,1.5173848E0,3.8865063E-1,-1.400807E0,1.0318768E0,-9.605934E-1,1.0747682E0,2.742866E-1,-1.3283329E0,3.3807355E-1,3.9950106E-1,8.8888144E-1,3.1578797E-1,-7.417467E-6,3.8903925E-1,4.8274934E-1,1.9260143E0,6.310067E-1,-7.661111E-1,1.827577E0,1.7227628E0,3.971651E-1,-1.570775E-1,3.9936885E-1,-3.9788538E-1,-3.71535E-1,2.7692175E-1,-2.785359E-1,3.3333164E-1,-2.1818371E-1,-3.7037227E-1,9.230637E-2,-2.1818338E-1,1.6666493E-1,-3.2000154E-1,-9.536743E-7,1.09089695E-1,3.5471517E-1,-3.8350707E-1,-2.2211862E-1,3.955904E-1,2.8277758E-1,-1.5506308E-1,2.10814E-1,3.2104006E-1,3.8576778E-2,-3.1096512E-1,-1.4517753E-1,-1.9183862E-1,2.7647665E-1,-2.4279113E-1,3.7241203E-1,2.3072135E-1,1.0415323E-1,-1.7510315E-2,3.5513833E-1,3.6137745E-1,-2.8983516E-1,-4.5454E-2,2.087641E-1,-9.536743E-7,2.2857006E-1,3.0767912E-2,-4.4445504E-2,-1.7358667E-1,2.4166484E-1,2.1395175E-1,3.8915065E-1,-2.9508376E-1,3.1999815E-1,3.5101867E-1,-2.4960189E-1,3.7142673E-1,9.999905E-2,3.773031E-1,-8.000161E-2,3.8840395E-1,-2.64518E-1],"categories":[],"categories_nodes":[],"categories_segments":[],"categories_sizes":[],"default_left":[0,0,0,0,0,0,0,0,0,0,0,0,0,0,0,0,0,0,0,0,0,0,0,0,0,0,0,0,0,0,0,0,0,0,0,0,0,0,0,0,0,0,0,0,0,0,0,0,0,0,0,0,0,0,0,0,0,0,0,0,0,0,0,0,0,0,0,0,0,0,0,0,0,0,0,0,0,0,0,0,0,0,0,0,0,0,0,0,0,0,0,0,0,0,0,0,0,0,0,0,0,0,0,0,0,0,0,0,0,0,0,0,0,0,0,0,0,0,0,0,0,0,0,0,0,0,0,0,0],"id":0,"left_children":[1,3,5,-1,7,9,11,-1,13,15,17,19,21,23,25,-1,27,29,31,33,35,37,39,41,43,45,47,49,51,53,55,57,59,61,63,65,-1,67,69,71,73,75,77,79,81,83,-1,85,87,89,91,93,95,-1,97,99,101,103,105,107,109,-1,111,-1,113,-1,115,117,119,121,123,125,-1,127,-1,-1,-1,-1,-1,-1,-1,-1,-1,-1,-1,-1,-1,-1,-1,-1,-1,-1,-1,-1,-1,-1,-1,-1,-1,-1,-1,-1,-1,-1,-1,-1,-1,-1,-1,-1,-1,-1,-1,-1,-1,-1,-1,-1,-1,-1,-1,-1,-1,-1,-1,-1,-1,-1,-1],"loss_changes":[9.482009E4,3.270121E3,1.6203377E4,0E0,5.9289844E2,9.576741E3,3.0902344E1,0E0,3.4545312E2,4.111133E3,2.9818687E3,1.1171875E1,1.0933789E2,6.1476562E1,4.1881554E1,0E0,1.0812367E4,2.5947314E3,1.5400725E3,5.7695312E0,2.2188843E1,2.7045105E2,2.0226562E1,2.3648438E1,4.2048584E1,2.1462692E1,4.460131E1,2.1924304E3,1.657917E3,3.88188E2,5.378351E2,1.4707886E2,1.6967766E3,1.5390625E0,5.0239363E0,3.7397614E1,0E0,6.659375E1,1.4002644E2,1.1845703E0,3.99479E2,8.53125E0,2.1963356E1,5.9640076E1,1.363205E1,1.39090805E1,0E0,2.1333284E0,9.1119385E-1,3.650708E2,1.603418E1,2.4537842E3,6.4245703E2,0E0,3.44271E2,4.5547333E2,1.2473053E2,6.2042603E1,1.4968935E2,3.6813232E2,6.65253E2,0E0,1.0158777E0,0E0,1.8803288E-1,0E0,3.657452E1,4.315674E0,9.778174E1,9.179396E1,2.0937347E-1,2.7086014E1,0E0,2.3621153E2,0E0,0E0,0E0,0E0,0E0,0E0,0E0,0E0,0E0,0E0,0E0,0E0,0E0,0E0,0E0,0E0,0E0,0E0,0E0,0E0,0E0,0E0,0E0,0E0,0E0,0E0,0E0,0E0,0E0,0E0,0E0,0E0,0E0,0E0,0E0,0E0,0E0,0E0,0E0,0E0,0E0,0E0,0E0,0E0,0E0,0E0,0E0,0E0,0E0,0E0,0E0,0E0,0E0,0E0,0E0],"parents":[2147483647,0,0,1,1,2,2,4,4,5,5,6,6,8,8,9,9,10,10,11,11,12,12,13,13,14,14,16,16,17,17,18,18,19,19,20,20,21,21,22,22,23,23,24,24,25,25,26,26,27,27,28,28,29,29,30,30,31,31,32,32,33,33,34,34,35,35,37,37,38,38,39,39,40,40,41,41,42,42,43,43,44,44,45,45,47,47,48,48,49,49,50,50,51,51,52,52,54,54,55,55,56,56,57,57,58,58,59,59,60,60,62,62,64,64,66,66,67,67,68,68,69,69,70,70,71,71,73,73],"right_children":[2,4,6,-1,8,10,12,-1,14,16,18,20,22,24,26,-1,28,30,32,34,36,38,40,42,44,46,48,50,52,54,56,58,60,62,64,66,-1,68,70,72,74,76,78,80,82,84,-1,86,88,90,92,94,96,-1,98,100,102,104,106,108,110,-1,112,-1,114,-1,116,118,120,122,124,126,-1,128,-1,-1,-1,-1,-1,-1,-1,-1,-1,-1,-1,-1,-1,-1,-1,-1,-1,-1,-1,-1,-1,-1,-1,-1,-1,-1,-1,-1,-1,-1,-1,-1,-1,-1,-1,-1,-1,-1,-1,-1,-1,-1,-1,-1,-1,-1,-1,-1,-1,-1,-1,-1,-1,-1,-1],"split_conditions":[1E0,1E0,1E0,3.9811575E-1,2E0,4.7E1,2E0,3.8974175E-1,4.362E0,1E0,3E0,8.4E1,1.3E1,3.9E1,6E0,3.948289E-1,2E0,1.6E1,6.4E1,5.193E0,1.8E1,8E0,4E0,4.2819E0,1.9E1,3E0,6E0,4E0,3E0,1E0,3E0,9E0,4E0,4.2E1,1E0,7E0,3.9661545E-1,5E0,5E0,1.4E1,2.1E1,3.4E1,3E0,4E0,5.1E1,1E0,-3.2195294E-1,4.8E1,7E0,2E0,2.3219E0,2E0,3E0,3.8865063E-1,6E0,4E0,3.5E1,2E0,1E0,1E0,1E0,3.9950106E-1,4.5277E0,3.1578797E-1,7E0,3.8903925E-1,4.8993E0,2.4226E0,2.9528E0,4.1044E0,3.4194E0,4E0,3.971651E-1,2E1,3.9936885E-1,-3.9788538E-1,-3.71535E-1,2.7692175E-1,-2.785359E-1,3.3333164E-1,-2.1818371E-1,-3.7037227E-1,9.230637E-2,-2.1818338E-1,1.6666493E-1,-3.2000154E-1,-9.536743E-7,1.09089695E-1,3.5471517E-1,-3.8350707E-1,-2.2211862E-1,3.955904E-1,2.8277758E-1,-1.5506308E-1,2.10814E-1,3.2104006E-1,3.8576778E-2,-3.1096512E-1,-1.4517753E-1,-1.9183862E-1,2.7647665E-1,-2.4279113E-1,3.7241203E-1,2.3072135E-1,1.0415323E-1,-1.7510315E-2,3.5513833E-1,3.6137745E-1,-2.8983516E-1,-4.5454E-2,2.087641E-1,-9.536743E-7,2.2857006E-1,3.0767912E-2,-4.4445504E-2,-1.7358667E-1,2.4166484E-1,2.1395175E-1,3.8915065E-1,-2.9508376E-1,3.1999815E-1,3.5101867E-1,-2.4960189E-1,3.7142673E-1,9.999905E-2,3.773031E-1,-8.000161E-2,3.8840395E-1,-2.64518E-1],"split_indices":[2,9,9,0,3,0,15,0,12,6,3,0,1,0,7,0,3,1,0,12,1,17,16,12,17,4,17,1,3,15,4,17,6,2,14,17,0,4,6,1,1,0,16,16,0,7,0,0,17,6,13,6,17,0,6,6,1,4,14,6,14,0,12,0,7,0,12,11,11,12,11,4,0,1,0,0,0,0,0,0,0,0,0,0,0,0,0,0,0,0,0,0,0,0,0,0,0,0,0,0,0,0,0,0,0,0,0,0,0,0,0,0,0,0,0,0,0,0,0,0,0,0,0,0,0,0,0,0,0],"split_type":[0,0,0,0,0,0,0,0,0,0,0,0,0,0,0,0,0,0,0,0,0,0,0,0,0,0,0,0,0,0,0,0,0,0,0,0,0,0,0,0,0,0,0,0,0,0,0,0,0,0,0,0,0,0,0,0,0,0,0,0,0,0,0,0,0,0,0,0,0,0,0,0,0,0,0,0,0,0,0,0,0,0,0,0,0,0,0,0,0,0,0,0,0,0,0,0,0,0,0,0,0,0,0,0,0,0,0,0,0,0,0,0,0,0,0,0,0,0,0,0,0,0,0,0,0,0,0,0,0],"sum_hessian":[5.301075E4,1.74325E4,3.557825E4,2.115E2,1.7221E4,2.454425E4,1.1034E4,3.8E1,1.7183E4,1.603125E4,8.513E3,6.636E3,4.398E3,1.7126E4,5.7E1,3.09425E3,1.2937E4,4.176E3,4.337E3,6.448E3,1.88E2,5.24E2,3.874E3,1.695725E4,1.6875E2,2.475E1,3.225E1,2.5345E3,1.04025E4,3.356E3,8.2E2,1.7075E3,2.6295E3,6.44075E3,7.25E0,7.075E1,1.1725E2,4.2325E2,1.0075E2,2.827E3,1.047E3,1.690825E4,4.9E1,7.3E1,9.575E1,1.55E1,9.25E0,5E0,2.725E1,2.28025E3,2.5425E2,4.87725E3,5.52525E3,3.425E1,3.32175E3,6.4975E2,1.7025E2,1.43325E3,2.7425E2,9.6375E2,1.66575E3,6.43725E3,3.5E0,3.75E0,3.5E0,3.55E1,3.525E1,3.775E2,4.575E1,7.275E1,2.8E1,7.475E1,2.75225E3,9.45E1,9.525E2,1.61575E4,7.5075E2,2.25E0,4.675E1,8E0,6.5E1,9.35E1,2.25E0,4.5E0,1.1E1,4E0,1E0,1.75E0,2.55E1,1.0175E3,1.26275E3,8.975E1,1.645E2,8.98E2,3.97925E3,5.1815E3,3.4375E2,2.7035E3,6.1825E2,9.7E1,5.5275E2,1.5675E2,1.35E1,1.25375E3,1.795E2,2.2175E2,5.25E1,3.525E1,9.285E2,9.2525E2,7.405E2,1E0,2.5E0,2.25E0,1.25E0,1.225E1,2.3E1,9.75E0,3.6775E2,1.425E1,3.15E1,1.125E1,6.15E1,2.7E1,1E0,6.95E1,5.25E0,3.35E1,6.1E1],"tree_param":{"num_deleted":"0","num_feature":"18","num_nodes":"129","size_leaf_vector":"1"}},{"base_weights":[-4.4498887E-5,-1.5941434E0,7.709722E-1,3.3267948E-1,-1.6342278E0,3.9574397E-1,1.6214026E0,3.2652193E-1,-1.6415586E0,8.197395E-1,-2.616234E-1,1.6600987E0,1.5627139E0,-1.6484627E0,3.917233E-1,3.2979533E-1,6.105723E-1,-7.803622E-1,2.5880614E-1,1.6668283E0,1.4227833E0,1.1950798E0,1.6123979E0,-1.6548336E0,-1.1931223E0,-4.0963838E-1,1.0082854E0,-8.9686453E-1,9.7176653E-1,-1.2045174E0,3.9246085E-1,8.390688E-1,-2.5207096E-1,1.6677356E0,7.737995E-1,1.0204855E0,3.3157665E-1,1.4879721E0,-2.1629835E-2,1.652137E0,1.5036501E0,-1.6565732E0,-1.0044998E0,-1.2724147E0,1.148064E0,1.9233729E-1,-1.3528008E0,-1.1409525E0,1.4333082E0,-1.141497E0,6.992192E-1,6.5972346E-1,1.2501956E0,3.2648358E-1,-1.2564616E0,7.698697E-1,-1.3693326E0,9.675703E-1,2.969234E-1,-1.1666607E0,2.6899615E-1,3.3362314E-1,7.679731E-1,2.7159524E-1,-3.046993E-3,3.1487077E-1,1.561282E0,1.6051854E0,5.1870215E-1,-6.2291926E-1,3.0608225E-1,1.4320142E0,3.3152193E-1,-1.2668951E-1,3.3356455E-1,-3.3265704E-1,-3.1630453E-1,-2.5798926E-1,6.7186676E-2,-1.6439565E-1,-3.0822632E-1,3.349658E-1,-1.9704902E-1,-1.0237719E-1,2.4399514E-1,-1.1161871E-1,-3.0084652E-1,-2.7476603E-1,-8.583069E-7,9.53996E-2,2.9592943E-1,-3.1566247E-1,-1.6821429E-1,2.5029096E-1,-3.391486E-1,-1.1707814E-1,1.8454878E-1,2.6744407E-1,5.190308E-2,-3.1371954E-1,-2.0614795E-1,9.711471E-2,3.5321158E-1,-3.043498E-1,1.3960958E-1,1.793417E-1,3.1135148E-1,-1.0221619E-2,3.3508575E-1,-2.5158107E-1,4.0966007E-1,-1.5573049E-1,1.2548837E-1,-8.583069E-7,1.97889E-1,-3.7553187E-2,3.6556903E-2,-1.21251106E-1,2.4820387E-1,3.852214E-2,3.2375064E-1,1.7711388E-1,3.2444447E-1,-2.452505E-1,2.6495564E-1,3.383907E-1,-2.060716E-1,3.2748792E-1,3.0238654E-3,3.5038966E-1,-2.3127277E-1],"categories":[],"categories_nodes":[],"categories_segments":[],"categories_sizes":[],"default_left":[0,0,0,0,0,0,0,0,0,0,0,0,0,0,0,0,0,0,0,0,0,0,0,0,0,0,0,0,0,0,0,0,0,0,0,0,0,0,0,0,0,0,0,0,0,0,0,0,0,0,0,0,0,0,0,0,0,0,0,0,0,0,0,0,0,0,0,0,0,0,0,0,0,0,0,0,0,0,0,0,0,0,0,0,0,0,0,0,0,0,0,0,0,0,0,0,0,0,0,0,0,0,0,0,0,0,0,0,0,0,0,0,0,0,0,0,0,0,0,0,0,0,0,0,0,0,0,0,0,0,0],"id":1,"left_children":[1,3,5,-1,7,9,11,-1,13,15,17,19,21,23,25,-1,27,29,31,33,35,37,39,41,43,45,47,49,51,53,55,57,59,61,63,65,-1,67,69,71,73,75,77,79,81,83,85,87,89,91,93,95,97,-1,99,101,103,105,107,109,111,-1,113,-1,115,117,119,121,123,125,-1,127,-1,129,-1,-1,-1,-1,-1,-1,-1,-1,-1,-1,-1,-1,-1,-1,-1,-1,-1,-1,-1,-1,-1,-1,-1,-1,-1,-1,-1,-1,-1,-1,-1,-1,-1,-1,-1,-1,-1,-1,-1,-1,-1,-1,-1,-1,-1,-1,-1,-1,-1,-1,-1,-1,-1,-1,-1,-1,-1],"loss_changes":[6.322422E4,2.1924023E3,1.1063088E4,0E0,3.9941016E2,6.7056953E3,2.1509766E1,0E0,2.326836E2,2.5357373E3,2.5470078E3,7.8164062E0,7.541992E1,4.5816406E1,2.8449493E1,0E0,6.360849E3,2.3508713E3,1.3964456E3,3.7324219E0,1.5594788E1,1.810694E2,1.3625E1,1.6714844E1,4.4323944E1,1.4672932E1,3.119402E1,8.825834E2,8.179072E2,5.134204E2,8.359608E2,1.5335938E2,1.1943424E3,8.359375E-1,3.7058616E0,2.6225876E1,0E0,4.5686768E1,9.3855705E1,9.0234375E-1,2.702024E2,5.5273438E0,1.7985939E1,2.5822693E1,1.0740826E1,1.2471842E1,3.6566925E-1,1.5674534E0,5.1104736E-1,2.5570068E2,3.9989923E2,1.4564476E3,4.2890088E2,0E0,2.3851904E2,2.9220142E2,7.098013E1,7.3022095E1,2.0351814E2,2.6939172E2,6.0018365E2,0E0,7.598822E-1,0E0,1.8875095E-1,2.7736887E1,2.786148E0,3.0360718E0,6.583621E1,7.0087685E1,0E0,2.1317795E1,0E0,1.8233568E2,0E0,0E0,0E0,0E0,0E0,0E0,0E0,0E0,0E0,0E0,0E0,0E0,0E0,0E0,0E0,0E0,0E0,0E0,0E0,0E0,0E0,0E0,0E0,0E0,0E0,0E0,0E0,0E0,0E0,0E0,0E0,0E0,0E0,0E0,0E0,0E0,0E0,0E0,0E0,0E0,0E0,0E0,0E0,0E0,0E0,0E0,0E0,0E0,0E0,0E0,0E0,0E0,0E0,0E0,0E0,0E0,0E0],"parents":[2147483647,0,0,1,1,2,2,4,4,5,5,6,6,8,8,9,9,10,10,11,11,12,12,13,13,14,14,16,16,17,17,18,18,19,19,20,20,21,21,22,22,23,23,24,24,25,25,26,26,27,27,28,28,29,29,30,30,31,31,32,32,33,33,34,34,35,35,37,37,38,38,39,39,40,40,41,41,42,42,43,43,44,44,45,45,46,46,47,47,48,48,49,49,50,50,51,51,52,52,54,54,55,55,56,56,57,57,58,58,59,59,60,60,62,62,64,64,65,65,66,66,67,67,68,68,69,69,71,71,73,73],"right_children":[2,4,6,-1,8,10,12,-1,14,16,18,20,22,24,26,-1,28,30,32,34,36,38,40,42,44,46,48,50,52,54,56,58,60,62,64,66,-1,68,70,72,74,76,78,80,82,84,86,88,90,92,94,96,98,-1,100,102,104,106,108,110,112,-1,114,-1,116,118,120,122,124,126,-1,128,-1,130,-1,-1,-1,-1,-1,-1,-1,-1,-1,-1,-1,-1,-1,-1,-1,-1,-1,-1,-1,-1,-1,-1,-1,-1,-1,-1,-1,-1,-1,-1,-1,-1,-1,-1,-1,-1,-1,-1,-1,-1,-1,-1,-1,-1,-1,-1,-1,-1,-1,-1,-1,-1,-1,-1,-1,-1,-1],"split_conditions":[1E0,1E0,1E0,3.3267948E-1,2E0,4.1751E0,2E0,3.2652193E-1,4.362E0,1E0,3E0,8.4E1,1.3E1,3.8E1,6E0,3.2979533E-1,2E0,1.3E1,6.4E1,5.193E0,1.8E1,8E0,4E0,4.2819E0,6E0,3E0,6E0,2E0,3E0,1E0,4E0,3E0,4E0,4.2E1,1E0,3E0,3.3157665E-1,5E0,5E0,1.4E1,2.1E1,3.6978E0,5E0,1.9E1,6E0,4.2E1,4E0,4.8E1,7E0,2E0,7.5E1,2E0,3E0,3.2648358E-1,2E0,1E0,3.8937E0,1.6E1,1E0,4.056E0,7E0,3.3362314E-1,4.5277E0,2.7159524E-1,1E0,2.75E0,4.4671E0,2.4226E0,2.9528E0,1.3E1,3.0608225E-1,6.8E1,3.3152193E-1,3.5383E0,3.3356455E-1,-3.3265704E-1,-3.1630453E-1,-2.5798926E-1,6.7186676E-2,-1.6439565E-1,-3.0822632E-1,3.349658E-1,-1.9704902E-1,-1.0237719E-1,2.4399514E-1,-1.1161871E-1,-3.0084652E-1,-2.7476603E-1,-8.583069E-7,9.53996E-2,2.9592943E-1,-3.1566247E-1,-1.6821429E-1,2.5029096E-1,-3.391486E-1,-1.1707814E-1,1.8454878E-1,2.6744407E-1,5.190308E-2,-3.1371954E-1,-2.0614795E-1,9.711471E-2,3.5321158E-1,-3.043498E-1,1.3960958E-1,1.793417E-1,3.1135148E-1,-1.0221619E-2,3.3508575E-1,-2.5158107E-1,4.0966007E-1,-1.5573049E-1,1.2548837E-1,-8.583069E-7,1.97889E-1,-3.7553187E-2,3.6556903E-2,-1.21251106E-1,2.4820387E-1,3.852214E-2,3.2375064E-1,1.7711388E-1,3.2444447E-1,-2.452505E-1,2.6495564E-1,3.383907E-1,-2.060716E-1,3.2748792E-1,3.0238654E-3,3.5038966E-1,-2.3127277E-1],"split_indices":[2,9,9,0,3,12,15,0,12,6,3,0,1,0,7,0,3,1,0,12,1,17,16,12,7,4,17,16,3,15,4,16,6,2,14,3,0,4,6,1,1,11,7,17,16,0,4,0,17,6,0,6,16,0,3,14,11,7,14,11,1,0,12,0,4,13,12,11,11,2,0,2,0,11,0,0,0,0,0,0,0,0,0,0,0,0,0,0,0,0,0,0,0,0,0,0,0,0,0,0,0,0,0,0,0,0,0,0,0,0,0,0,0,0,0,0,0,0,0,0,0,0,0,0,0,0,0,0,0,0,0],"split_type":[0,0,0,0,0,0,0,0,0,0,0,0,0,0,0,0,0,0,0,0,0,0,0,0,0,0,0,0,0,0,0,0,0,0,0,0,0,0,0,0,0,0,0,0,0,0,0,0,0,0,0,0,0,0,0,0,0,0,0,0,0,0,0,0,0,0,0,0,0,0,0,0,0,0,0,0,0,0,0,0,0,0,0,0,0,0,0,0,0,0,0,0,0,0,0,0,0,0,0,0,0,0,0,0,0,0,0,0,0,0,0,0,0,0,0,0,0,0,0,0,0,0,0,0,0,0,0,0,0,0,0],"sum_hessian":[5.143841E4,1.6768334E4,3.4670074E4,2.0333565E2,1.6564998E4,2.405705E4,1.0613024E4,3.6592655E1,1.6528406E4,1.4624284E4,9.432768E3,6.3794683E3,4.233556E3,1.6472662E4,5.5743717E1,2.944403E3,1.1679881E4,4.7238076E3,4.70896E3,6.197696E3,1.8177254E2,5.070109E2,3.7265452E3,1.6242767E4,2.2989589E2,2.4385223E1,3.1358494E1,2.2573586E3,9.422522E3,3.469151E3,1.2546566E3,2.204458E3,2.504502E3,6.1905386E3,7.1568875E0,6.901546E1,1.1275707E2,4.0846118E2,9.854973E1,2.7188264E3,1.0077186E3,1.6197892E4,4.487455E1,2.2280629E2,7.0896015E0,1.5370829E1,9.014395E0,4.8993273E0,2.6459166E1,1.957601E3,2.9975763E2,4.4446504E3,4.977872E3,6.1830833E1,3.40732E3,1.0337675E3,2.2088913E2,1.781431E3,4.230269E2,9.085514E2,1.5959506E3,6.1870713E3,3.467627E0,3.6580372E0,3.4988506E0,3.0631128E1,3.838433E1,3.6380978E2,4.4651394E1,7.146249E1,2.7087244E1,7.2325554E1,2.646501E3,9.221297E1,9.155056E2,1.4848758E4,1.3491345E3,3.7027233E1,7.8473163E0,8.476981E1,1.3803647E2,5.8580294E0,1.2315722E0,9.418423E0,5.952405E0,2.1926906E0,6.8217044E0,3.8993275E0,1E0,1.744803E0,2.4714363E1,7.95989E2,1.1616119E3,2.4397809E2,5.5779537E1,7.749383E2,3.6697122E3,4.575587E3,4.022848E2,1.427447E3,1.979873E3,8.054052E2,2.2836227E2,2.0596817E2,1.4920969E1,1.5924305E3,1.8900053E2,3.3852286E2,8.4504005E1,8.840691E2,2.448227E1,4.065456E2,1.189405E3,1E0,2.467627E0,1.7494574E0,1.7493932E0,1.5530375E1,1.5100755E1,1.722179E0,3.666215E1,9.639258E0,3.5417053E2,1.3944263E1,3.0707129E1,1.022369E1,6.1238796E1,6.3031433E1,9.294118E0,3.2399223E1,5.9813744E1],"tree_param":{"num_deleted":"0","num_feature":"18","num_nodes":"131","size_leaf_vector":"1"}},{"base_weights":[-4.2277246E-4,-1.4091036E0,6.5903133E-1,2.9471633E-1,-1.4445319E0,3.328265E-1,1.43374E0,2.890882E-1,-1.4510379E0,7.208859E-1,-2.2064818E-1,1.4698477E0,1.3791481E0,-1.4602277E0,-1.8085757E-1,2.9127833E-1,5.399151E-1,-6.917805E-1,2.2638038E-1,1.4764264E0,1.2419903E0,1.042778E0,1.4252516E0,-1.4652056E0,-1.079721E0,-7.299103E-1,8.4782887E-1,-7.613713E-1,8.604247E-1,-9.544956E-1,4.3946937E-1,7.202007E-1,-1.5245496E-1,1.4772944E0,6.731757E-1,8.7331617E-1,2.941596E-1,1.3055636E0,-1.1572677E-2,1.4611987E0,1.3270396E0,-1.4726387E0,-1.3897554E0,-5.9962237E-1,-1.3487787E0,-8.09319E-1,9.740525E-1,-9.027551E-1,1.3982766E0,-9.750516E-1,1.2579077E0,9.419989E-1,-2.5628087E-1,2.8852648E-1,-9.9057454E-1,-2.950719E-1,9.194193E-1,8.595863E-1,2.4187636E-1,-3.1613505E-1,1.7006322E0,2.9551882E-1,5.0911146E-1,2.411422E-1,-2.6585674E-3,-1.1950685E-1,1.2133993E0,1.4014264E0,3.39637E-1,8.6293113E-1,-8.3949846E-1,1.2475322E0,1.4666221E0,-1.033718E-1,2.9550532E-1,-2.9457074E-1,-1.1174499E-1,-2.8063208E-1,1.9701444E-1,2.9092535E-1,-1.7902738E-1,-2.7637395E-1,9.608417E-2,-1.9538626E-1,-1.8890617E-2,2.4524312E-1,5.17441E-2,-2.6115605E-1,2.0936048E-1,2.9904053E-1,1.3308778E-1,-2.8073475E-1,-1.2208717E-1,3.0531567E-1,2.1543272E-1,7.677161E-2,2.164923E-1,-1.9671443E-1,2.162339E-1,-1.5457658E-1,-2.7281412E-1,-1.4780836E-1,1.9645265E-1,2.4401228E-1,-1.3172191E-1,1.604396E-1,2.5862998E-1,-2.0189505E-2,3.0909294E-1,-1.4999998E-1,1.0816463E-1,3.4180418E-1,1.3341418E-1,1.6003565E-1,-2.4547277E-3,2.7157942E-2,-4.029249E-2,2.5985023E-1,-1.6532247E-1,9.288858E-2,2.9496762E-1,1.4894095E-1,2.8353575E-1,-1.3546585E-1,2.9935256E-1,3.2773587E-1,-6.682136E-2,-2.2477508E-1,2.3072945E-1,2.7838343E-1,-8.296337E-2,2.686695E-1,2.9471E-1,3.050856E-1,-1.9299923E-1],"categories":[],"categories_nodes":[],"categories_segments":[],"categories_sizes":[],"default_left":[0,0,0,0,0,0,0,0,0,0,0,0,0,0,0,0,0,0,0,0,0,0,0,0,0,0,0,0,0,0,0,0,0,0,0,0,0,0,0,0,0,0,0,0,0,0,0,0,0,0,0,0,0,0,0,0,0,0,0,0,0,0,0,0,0,0,0,0,0,0,0,0,0,0,0,0,0,0,0,0,0,0,0,0,0,0,0,0,0,0,0,0,0,0,0,0,0,0,0,0,0,0,0,0,0,0,0,0,0,0,0,0,0,0,0,0,0,0,0,0,0,0,0,0,0,0,0,0,0,0,0,0,0,0,0],"id":2,"left_children":[1,3,5,-1,7,9,11,-1,13,15,17,19,21,23,25,-1,27,29,31,33,35,37,39,41,43,45,47,49,51,53,55,57,59,61,63,65,-1,67,69,71,73,75,77,79,81,83,85,87,89,91,93,95,97,-1,99,101,103,105,107,109,111,-1,113,-1,115,117,119,121,123,125,127,129,131,133,-1,-1,-1,-1,-1,-1,-1,-1,-1,-1,-1,-1,-1,-1,-1,-1,-1,-1,-1,-1,-1,-1,-1,-1,-1,-1,-1,-1,-1,-1,-1,-1,-1,-1,-1,-1,-1,-1,-1,-1,-1,-1,-1,-1,-1,-1,-1,-1,-1,-1,-1,-1,-1,-1,-1,-1,-1,-1,-1,-1,-1],"loss_changes":[4.4657438E4,1.5676133E3,8.274357E3,0E0,2.8681836E2,4.949371E3,1.7095703E1,0E0,1.7610547E2,1.8022485E3,2.0005502E3,6.897461E0,5.866162E1,2.6830078E1,6.2563663E1,0E0,4.5353857E3,1.374843E3,9.120116E2,2.9492188E0,1.3033752E1,1.3058197E2,1.0093262E1,6.2558594E0,2.470401E1,1.0536766E1,3.84859E1,9.285907E2,7.949888E2,3.2604102E2,3.0778418E2,1.408872E2,8.374428E2,8.857422E-1,2.8616724E0,2.2923397E1,0E0,3.445459E1,6.951439E1,1.050293E0,1.9907703E2,1.8203125E0,4.421411E1,4.5456253E1,8.276871E0,8.221302E0,3.432703E-1,9.105101E0,1.1204071E0,3.0298035E2,8.364349E0,6.370171E2,5.7954913E2,0E0,2.9964307E2,1.9663918E2,2.512055E2,3.9727173E1,2.1418883E2,9.433435E2,8.029175E-1,0E0,5.0658315E-1,0E0,1.5115978E-1,1.9255318E1,9.171883E0,2.6035767E0,4.264534E1,4.3911884E1,2.9246765E1,1.6949982E1,8.544922E-2,1.2623863E2,0E0,0E0,0E0,0E0,0E0,0E0,0E0,0E0,0E0,0E0,0E0,0E0,0E0,0E0,0E0,0E0,0E0,0E0,0E0,0E0,0E0,0E0,0E0,0E0,0E0,0E0,0E0,0E0,0E0,0E0,0E0,0E0,0E0,0E0,0E0,0E0,0E0,0E0,0E0,0E0,0E0,0E0,0E0,0E0,0E0,0E0,0E0,0E0,0E0,0E0,0E0,0E0,0E0,0E0,0E0,0E0,0E0,0E0,0E0,0E0,0E0],"parents":[2147483647,0,0,1,1,2,2,4,4,5,5,6,6,8,8,9,9,10,10,11,11,12,12,13,13,14,14,16,16,17,17,18,18,19,19,20,20,21,21,22,22,23,23,24,24,25,25,26,26,27,27,28,28,29,29,30,30,31,31,32,32,33,33,34,34,35,35,37,37,38,38,39,39,40,40,41,41,42,42,43,43,44,44,45,45,46,46,47,47,48,48,49,49,50,50,51,51,52,52,54,54,55,55,56,56,57,57,58,58,59,59,60,60,62,62,64,64,65,65,66,66,67,67,68,68,69,69,70,70,71,71,72,72,73,73],"right_children":[2,4,6,-1,8,10,12,-1,14,16,18,20,22,24,26,-1,28,30,32,34,36,38,40,42,44,46,48,50,52,54,56,58,60,62,64,66,-1,68,70,72,74,76,78,80,82,84,86,88,90,92,94,96,98,-1,100,102,104,106,108,110,112,-1,114,-1,116,118,120,122,124,126,128,130,132,134,-1,-1,-1,-1,-1,-1,-1,-1,-1,-1,-1,-1,-1,-1,-1,-1,-1,-1,-1,-1,-1,-1,-1,-1,-1,-1,-1,-1,-1,-1,-1,-1,-1,-1,-1,-1,-1,-1,-1,-1,-1,-1,-1,-1,-1,-1,-1,-1,-1,-1,-1,-1,-1,-1,-1,-1,-1,-1,-1,-1,-1],"split_conditions":[1E0,1E0,1E0,2.9471633E-1,2E0,4.3E1,2E0,2.890882E-1,4.2892E0,1E0,3E0,8.4E1,1.3E1,3.8E1,6E0,2.9127833E-1,2E0,1.6E1,6.1E1,5.193E0,3.3842E0,8E0,4E0,3.2E1,1.9E1,5.6E1,7E0,4E0,1E0,1E0,5E0,3E0,6E0,3E0,1E0,4.8993E0,2.941596E-1,6E0,3.2806E0,1.4E1,2.1E1,3.9791E0,5E0,4E0,5.1E1,4E0,5E1,4.9E1,4.5645E0,2E0,2.3219E0,2E0,3E0,2.8852648E-1,3E0,2.8E1,3E0,2.4956E0,1E0,6E0,7E0,2.9551882E-1,1E0,2.411422E-1,7E0,7E0,1.13E2,2.4226E0,1E1,4.4463E0,5E0,4E0,4E1,3.5383E0,2.9550532E-1,-2.9457074E-1,-1.1174499E-1,-2.8063208E-1,1.9701444E-1,2.9092535E-1,-1.7902738E-1,-2.7637395E-1,9.608417E-2,-1.9538626E-1,-1.8890617E-2,2.4524312E-1,5.17441E-2,-2.6115605E-1,2.0936048E-1,2.9904053E-1,1.3308778E-1,-2.8073475E-1,-1.2208717E-1,3.0531567E-1,2.1543272E-1,7.677161E-2,2.164923E-1,-1.9671443E-1,2.162339E-1,-1.5457658E-1,-2.7281412E-1,-1.4780836E-1,1.9645265E-1,2.4401228E-1,-1.3172191E-1,1.604396E-1,2.5862998E-1,-2.0189505E-2,3.0909294E-1,-1.4999998E-1,1.0816463E-1,3.4180418E-1,1.3341418E-1,1.6003565E-1,-2.4547277E-3,2.7157942E-2,-4.029249E-2,2.5985023E-1,-1.6532247E-1,9.288858E-2,2.9496762E-1,1.4894095E-1,2.8353575E-1,-1.3546585E-1,2.9935256E-1,3.2773587E-1,-6.682136E-2,-2.2477508E-1,2.3072945E-1,2.7838343E-1,-8.296337E-2,2.686695E-1,2.9471E-1,3.050856E-1,-1.9299923E-1],"split_indices":[2,9,9,0,3,0,15,0,12,6,3,0,1,0,7,0,3,1,0,12,11,17,16,0,17,0,17,1,5,15,6,16,16,5,14,12,0,4,11,1,1,11,7,16,0,7,1,0,12,6,13,6,3,0,4,1,4,11,14,6,4,0,4,0,7,17,0,11,6,12,6,4,0,11,0,0,0,0,0,0,0,0,0,0,0,0,0,0,0,0,0,0,0,0,0,0,0,0,0,0,0,0,0,0,0,0,0,0,0,0,0,0,0,0,0,0,0,0,0,0,0,0,0,0,0,0,0,0,0,0,0,0,0,0,0],"split_type":[0,0,0,0,0,0,0,0,0,0,0,0,0,0,0,0,0,0,0,0,0,0,0,0,0,0,0,0,0,0,0,0,0,0,0,0,0,0,0,0,0,0,0,0,0,0,0,0,0,0,0,0,0,0,0,0,0,0,0,0,0,0,0,0,0,0,0,0,0,0,0,0,0,0,0,0,0,0,0,0,0,0,0,0,0,0,0,0,0,0,0,0,0,0,0,0,0,0,0,0,0,0,0,0,0,0,0,0,0,0,0,0,0,0,0,0,0,0,0,0,0,0,0,0,0,0,0,0,0,0,0,0,0,0,0],"sum_hessian":[4.807049E4,1.5327594E4,3.2742896E4,1.8559663E2,1.5141997E4,2.3042059E4,9.700838E3,3.3514427E1,1.5108482E4,1.3544946E4,9.497112E3,5.8233105E3,3.8775273E3,1.4999808E4,1.0867508E2,2.673243E3,1.0871703E4,4.6236294E3,4.8734824E3,5.654573E3,1.6873714E2,4.702447E2,3.4072825E3,1.4803301E4,1.9650653E2,7.1045555E1,3.7629524E1,2.1482632E3,8.72344E3,3.752359E3,8.712704E2,2.1152742E3,2.7582085E3,5.6476313E3,6.9422674E0,6.646305E1,1.02274086E2,3.7623413E2,9.401057E1,2.4841633E3,9.2311914E2,1.3458841E4,1.3444596E3,7.173438E1,1.2477214E2,6.838374E1,2.661806E0,8.848543E0,2.8780981E1,1.9431554E3,2.0510773E2,8.1297285E3,5.937119E2,5.5060852E1,3.6972979E3,3.444661E2,5.268043E2,1.6373477E3,4.779265E2,2.5351152E3,2.2309311E2,5.645358E3,2.273385E0,3.4442651E0,3.498002E0,1.7123138E1,4.933991E1,3.4185596E2,3.437817E1,4.569867E1,4.8311897E1,6.721396E1,2.4169495E3,8.7902245E1,8.352169E2,1.3455065E4,3.7753975E0,1.3373201E3,7.1394663E0,8.52828E0,6.3206104E1,1.2279527E2,1.9768713E0,5.509841E1,1.3285335E1,1.4399985E0,1.2218077E0,7.6063304E0,1.2422131E0,2.4500254E1,4.280727E0,8.918714E2,1.051284E3,7.949496E1,1.2561277E2,1.6353301E3,6.494398E3,3.847523E2,2.0895961E2,2.3377898E3,1.3595082E3,2.5593193E2,8.853416E1,4.426908E2,8.411351E1,1.4484719E3,1.8887578E2,3.791408E2,9.8785706E1,1.6831083E3,8.520071E2,2.2064874E2,2.4443583E0,1.1157781E0,1.1576071E0,2.2488532E0,1.2491491E0,5.4169607E0,1.1706179E1,1.34850645E1,3.5854847E1,9.38651E0,3.3246945E2,1.8517921E1,1.5860249E1,2.7504957E1,1.8193712E1,4.2661232E1,5.650666E0,6.199224E1,5.221714E0,1.3897075E2,2.2779788E3,3.0145432E1,5.7756813E1],"tree_param":{"num_deleted":"0","num_feature":"18","num_nodes":"135","size_leaf_vector":"1"}},{"base_weights":[-6.584952E-4,-1.2876495E0,5.742448E-1,2.7007875E-1,-1.3200135E0,2.8391698E-1,1.3106294E0,2.6431605E-1,-1.3259847E0,7.3361427E-1,-9.6841015E-2,1.3463018E0,1.2569559E0,-1.3350915E0,-1.4778021E-1,1.332389E0,5.564935E-1,-9.9139947E-1,8.160248E-2,1.3520999E0,1.0650368E0,9.319675E-1,1.3025556E0,-1.3403711E0,-9.4728684E-1,-6.094407E-1,7.5328887E-1,2.6653993E-1,7.763794E-2,-5.7032174E-1,8.4521353E-1,-1.2336448E0,-1.3318588E-1,2.665333E-1,-4.62883E-1,1.3529774E0,6.4609843E-1,1.198814E-1,1.1731956E0,1.1766396E0,-4.9014953E-3,1.3362994E0,1.210516E0,-1.3483768E0,-1.2529229E0,-5.0115263E-1,-1.2136555E0,-7.017935E-1,6.492407E-1,-7.689226E-1,1.2490666E0,-1.250635E0,-1.4912397E-1,3.5253596E-1,9.723607E-1,1.1838026E0,-1.2808794E0,6.884943E-1,-1.3594965E0,3.852819E-1,-8.231783E-1,-8.413908E-1,2.479431E-1,1.3533826E0,6.6845924E-1,2.2427848E-1,5.422267E-3,-1.0737089E0,2.3327433E-1,4.4756958E-1,2.6645872E-1,1.2840757E0,3.6332262E-1,-4.5414636E-1,1.2392755E0,1.1165123E0,1.342024E0,-8.4731914E-2,2.7087528E-1,-2.698484E-1,-2.3370902E-1,-2.5432736E-1,6.5202855E-2,2.4605694E-1,-1.507966E-1,-2.4930151E-1,8.282215E-2,-9.326691E-2,-2.8368202E-1,2.5716814E-1,-1.2656562E-1,-2.2778311E-1,1.888239E-1,2.6835638E-1,1.1619683E-1,-2.5040174E-1,-4.6203904E-2,1.9996122E-1,-1.2325243E-1,-8.949969E-2,2.190001E-1,2.4972613E-1,1.3313834E-1,7.30026E-2,2.4204831E-1,-6.555325E-3,-2.5898966E-1,2.0959495E-1,-5.5475652E-2,1.7826995E-1,-2.779158E-1,6.701976E-2,3.0421114E-1,-1.8686964E-1,2.8511983E-1,-8.138424E-2,-2.7950567E-1,-4.057383E-2,1.239918E-1,2.709889E-1,2.2329147E-1,-7.923695E-2,2.2886598E-1,-1.3294075E-1,1.7964275E-1,1.6806577E-1,-3.4991702E-1,2.5701502E-1,-2.2053158E-1,1.2626977E-1,2.604562E-1,-2.0253508E-1,2.0666973E-1,2.0204683E-1,-1.7840944E-1,2.5377047E-1,8.187511E-2,2.6475972E-1,-2.1382926E-2,2.4292949E-1,2.6985684E-1,2.9345512E-1,-1.7440157E-1],"categories":[],"categories_nodes":[],"categories_segments":[],"categories_sizes":[],"default_left":[0,0,0,0,0,0,0,0,0,0,0,0,0,0,0,0,0,0,0,0,0,0,0,0,0,0,0,0,0,0,0,0,0,0,0,0,0,0,0,0,0,0,0,0,0,0,0,0,0,0,0,0,0,0,0,0,0,0,0,0,0,0,0,0,0,0,0,0,0,0,0,0,0,0,0,0,0,0,0,0,0,0,0,0,0,0,0,0,0,0,0,0,0,0,0,0,0,0,0,0,0,0,0,0,0,0,0,0,0,0,0,0,0,0,0,0,0,0,0,0,0,0,0,0,0,0,0,0,0,0,0,0,0,0,0,0,0,0,0,0,0,0,0],"id":3,"left_children":[1,3,5,-1,7,9,11,-1,13,15,17,19,21,23,25,27,29,31,33,35,37,39,41,43,45,47,49,-1,-1,51,53,55,57,59,61,63,65,67,69,71,73,75,77,79,81,83,85,87,89,91,93,95,97,99,101,103,105,107,109,111,113,115,117,119,121,-1,123,125,-1,127,-1,129,131,133,135,137,139,141,-1,-1,-1,-1,-1,-1,-1,-1,-1,-1,-1,-1,-1,-1,-1,-1,-1,-1,-1,-1,-1,-1,-1,-1,-1,-1,-1,-1,-1,-1,-1,-1,-1,-1,-1,-1,-1,-1,-1,-1,-1,-1,-1,-1,-1,-1,-1,-1,-1,-1,-1,-1,-1,-1,-1,-1,-1,-1,-1,-1,-1,-1,-1,-1,-1],"loss_changes":[3.259736E4,1.1632207E3,6.5103037E3,0E0,2.1373438E2,3.7401704E3,1.4793945E1,0E0,1.4368164E2,1.0614053E3,1.8883319E3,6.973633E0,4.9959473E1,2.5978516E1,4.3711643E1,1.5283203E-1,2.515483E3,4.088308E2,9.932274E2,2.2548828E0,1.0992996E1,9.82092E1,7.779785E0,7.498047E0,2.1035889E1,8.5117035E0,2.7881077E1,0E0,0E0,4.5179852E2,3.8516895E2,1.7669116E2,4.384329E2,9.5308594E2,6.73084E2,4.9414062E-1,2.4860616E0,1.6612633E1,1.0672806E1,2.9216553E1,5.070603E1,1.2749023E0,1.533446E2,2.9101562E-1,3.33584E1,3.1480669E1,6.577118E0,1.0314171E1,5.104182E0,7.022185E0,9.1075516E-1,5.5548096E-1,5.240886E2,7.513004E2,4.1356494E2,2.059555E-1,2.6387451E1,9.079032E1,1.305661E1,3.7795062E2,1.822862E2,3.9379858E2,1.4599153E2,3.5253906E-1,2.96621E0,0E0,3.28363E0,9.575681E0,0E0,2.6162497E1,0E0,2.738861E0,3.887615E1,4.3636703E1,7.1315765E-2,1.5841652E1,3.4326172E-1,1.02872E2,0E0,0E0,0E0,0E0,0E0,0E0,0E0,0E0,0E0,0E0,0E0,0E0,0E0,0E0,0E0,0E0,0E0,0E0,0E0,0E0,0E0,0E0,0E0,0E0,0E0,0E0,0E0,0E0,0E0,0E0,0E0,0E0,0E0,0E0,0E0,0E0,0E0,0E0,0E0,0E0,0E0,0E0,0E0,0E0,0E0,0E0,0E0,0E0,0E0,0E0,0E0,0E0,0E0,0E0,0E0,0E0,0E0,0E0,0E0,0E0,0E0,0E0,0E0,0E0,0E0],"parents":[2147483647,0,0,1,1,2,2,4,4,5,5,6,6,8,8,9,9,10,10,11,11,12,12,13,13,14,14,15,15,16,16,17,17,18,18,19,19,20,20,21,21,22,22,23,23,24,24,25,25,26,26,29,29,30,30,31,31,32,32,33,33,34,34,35,35,36,36,37,37,38,38,39,39,40,40,41,41,42,42,43,43,44,44,45,45,46,46,47,47,48,48,49,49,50,50,51,51,52,52,53,53,54,54,55,55,56,56,57,57,58,58,59,59,60,60,61,61,62,62,63,63,64,64,66,66,67,67,69,69,71,71,72,72,73,73,74,74,75,75,76,76,77,77],"right_children":[2,4,6,-1,8,10,12,-1,14,16,18,20,22,24,26,28,30,32,34,36,38,40,42,44,46,48,50,-1,-1,52,54,56,58,60,62,64,66,68,70,72,74,76,78,80,82,84,86,88,90,92,94,96,98,100,102,104,106,108,110,112,114,116,118,120,122,-1,124,126,-1,128,-1,130,132,134,136,138,140,142,-1,-1,-1,-1,-1,-1,-1,-1,-1,-1,-1,-1,-1,-1,-1,-1,-1,-1,-1,-1,-1,-1,-1,-1,-1,-1,-1,-1,-1,-1,-1,-1,-1,-1,-1,-1,-1,-1,-1,-1,-1,-1,-1,-1,-1,-1,-1,-1,-1,-1,-1,-1,-1,-1,-1,-1,-1,-1,-1,-1,-1,-1,-1,-1,-1],"split_conditions":[1E0,1E0,1E0,2.7007875E-1,2E0,4.0331E0,2E0,2.6431605E-1,4.2892E0,1E0,2E0,1.03E2,1.3E1,3.8E1,6E0,1.03E2,2E0,1E1,1E0,4.3E1,1.09E2,8E0,4E0,3.6978E0,1.9E1,5.4E1,7E0,2.6653993E-1,7.763794E-2,2E0,2E0,1E0,4E0,4E0,4E0,7E0,8E0,1.8E1,1.3E1,5E0,5E0,1.4E1,2.1E1,3.6E1,5E0,4E0,5.1E1,1.6E1,6E0,4.9E1,4.5645E0,5.2E1,2.4E1,3E0,3.1E1,4.0391E0,3.1699E0,8.4E1,2.2E1,3.9536E0,3.6E1,7.5E1,1E1,5.0059E0,4E0,2.2427848E-1,3.5E0,3.1019E0,2.3327433E-1,7E0,2.6645872E-1,2.4226E0,2.9528E0,1E0,6E0,6.8E1,4E1,2E1,2.7087528E-1,-2.698484E-1,-2.3370902E-1,-2.5432736E-1,6.5202855E-2,2.4605694E-1,-1.507966E-1,-2.4930151E-1,8.282215E-2,-9.326691E-2,-2.8368202E-1,2.5716814E-1,-1.2656562E-1,-2.2778311E-1,1.888239E-1,2.6835638E-1,1.1619683E-1,-2.5040174E-1,-4.6203904E-2,1.9996122E-1,-1.2325243E-1,-8.949969E-2,2.190001E-1,2.4972613E-1,1.3313834E-1,7.30026E-2,2.4204831E-1,-6.555325E-3,-2.5898966E-1,2.0959495E-1,-5.5475652E-2,1.7826995E-1,-2.779158E-1,6.701976E-2,3.0421114E-1,-1.8686964E-1,2.8511983E-1,-8.138424E-2,-2.7950567E-1,-4.057383E-2,1.239918E-1,2.709889E-1,2.2329147E-1,-7.923695E-2,2.2886598E-1,-1.3294075E-1,1.7964275E-1,1.6806577E-1,-3.4991702E-1,2.5701502E-1,-2.2053158E-1,1.2626977E-1,2.604562E-1,-2.0253508E-1,2.0666973E-1,2.0204683E-1,-1.7840944E-1,2.5377047E-1,8.187511E-2,2.6475972E-1,-2.1382926E-2,2.4292949E-1,2.6985684E-1,2.9345512E-1,-1.7440157E-1],"split_indices":[2,9,9,0,3,12,15,0,12,6,3,0,1,0,7,0,3,1,5,2,0,17,16,11,17,0,17,0,0,6,6,15,4,4,6,6,17,1,1,4,6,1,1,0,7,16,0,17,16,0,12,0,2,3,0,12,13,0,2,11,1,0,1,12,3,0,11,11,0,17,0,11,11,7,3,2,0,1,0,0,0,0,0,0,0,0,0,0,0,0,0,0,0,0,0,0,0,0,0,0,0,0,0,0,0,0,0,0,0,0,0,0,0,0,0,0,0,0,0,0,0,0,0,0,0,0,0,0,0,0,0,0,0,0,0,0,0,0,0,0,0,0,0],"split_type":[0,0,0,0,0,0,0,0,0,0,0,0,0,0,0,0,0,0,0,0,0,0,0,0,0,0,0,0,0,0,0,0,0,0,0,0,0,0,0,0,0,0,0,0,0,0,0,0,0,0,0,0,0,0,0,0,0,0,0,0,0,0,0,0,0,0,0,0,0,0,0,0,0,0,0,0,0,0,0,0,0,0,0,0,0,0,0,0,0,0,0,0,0,0,0,0,0,0,0,0,0,0,0,0,0,0,0,0,0,0,0,0,0,0,0,0,0,0,0,0,0,0,0,0,0,0,0,0,0,0,0,0,0,0,0,0,0,0,0,0,0,0,0],"sum_hessian":[4.4054715E4,1.3602538E4,3.0452176E4,1.6436256E2,1.3438176E4,2.1842078E4,8.610098E3,2.9810898E1,1.3408365E4,1.0014017E4,1.1828062E4,5.15795E3,3.452148E3,1.330539E4,1.029755E2,2.284502E3,7.729514E3,1.966285E3,9.861776E3,5.050039E3,1.0791108E2,4.274138E2,3.0247341E3,1.3124255E4,1.8113414E2,6.830385E1,3.467166E1,2.2833394E3,1.1627645E0,1.5763535E3,6.1531606E3,1.5331031E3,4.331819E2,7.3618755E3,2.4999006E3,5.042855E3,7.1841197E0,1.1297278E1,9.66138E1,3.3870255E2,8.871125E1,2.2033972E3,8.2133685E2,1.201034E4,1.1139152E3,6.879408E1,1.1234006E2,6.404698E1,4.2568603E0,8.382748E0,2.6288912E1,6.020159E2,9.743376E2,1.2629965E3,4.890164E3,2.8920103E1,1.504183E3,2.5964636E2,1.7353554E2,6.6390483E3,7.2282733E2,1.6311473E3,8.6875336E2,5.038895E3,3.959891E0,3.6936276E0,3.4904919E0,5.265558E0,6.031721E0,1.8059568E1,7.855423E1,2.9867047E2,4.0032066E1,6.564373E1,2.306752E1,6.0909107E1,2.142488E3,8.214592E1,7.391909E2,1.1946354E4,6.398657E1,1.1010597E3,1.2855373E1,8.272967E0,6.0521114E1,1.1034721E2,1.992838E0,4.9449944E1,1.4597041E1,2.8424995E0,1.4143606E0,7.169407E0,1.2133405E0,2.2199677E1,4.0892363E0,6.009783E2,1.0376254E0,2.813109E2,6.930267E2,6.0812036E2,6.548761E2,2.5709722E3,2.3191921E3,1.3677624E0,2.7552341E1,1.6803507E1,1.4873795E3,1.8915956E2,7.04868E1,1.9111133E0,1.7162442E2,6.3593613E3,2.7968716E2,6.893341E2,3.349321E1,9.167159E2,7.1443146E2,3.929851E2,4.7576822E2,5.0012046E3,3.7690044E1,1.2749518E0,2.6849394E0,2.1398244E0,1.3506675E0,1.3106275E0,3.9549303E0,1.1836161E1,6.2234077E0,9.072355E0,2.895981E2,1.2942116E1,2.708995E1,1.4810173E1,5.0833557E1,2.1762987E1,1.3045338E0,5.2014248E1,8.894859E0,1.2460676E2,2.0178813E3,2.7355175E1,5.479075E1],"tree_param":{"num_deleted":"0","num_feature":"18","num_nodes":"143","size_leaf_vector":"1"}},{"base_weights":[-1.3874996E-3,-1.2019093E0,5.0354743E-1,2.5297445E-1,-1.2321002E0,2.4213241E-1,1.2239761E0,2.4670474E-1,-1.2377003E0,6.4427966E-1,-8.2396425E-2,1.2603747E0,1.1695336E0,-1.247442E0,-1.6691792E-1,1.2427107E0,4.79554E-1,-4.4320065E-1,2.7565482E-1,1.2676009E0,1.0220809E0,8.711893E-1,1.219708E0,-1.259254E0,-1.0456449E0,-6.703882E-1,4.654994E-1,2.4860878E-1,7.0196286E-2,-4.940787E-1,7.289063E-1,-7.270466E-1,3.3904296E-1,5.366429E-1,-2.6240543E-1,1.2687389E0,4.207701E-1,6.6245973E-1,2.5276566E-1,1.0940782E0,2.3876876E-1,1.2673031E0,1.1438891E0,-2.5327396E-1,-1.2119421E0,-6.149797E-1,-1.2117418E0,5.058646E-1,-7.840852E-1,-1.1424924E0,8.278384E-1,-1.1510592E0,-1.23952225E-1,5.080616E-1,9.5652616E-1,2.5575635E-1,-7.887885E-1,6.198584E-1,-8.055158E-1,6.782408E-1,2.5773285E-2,-7.249781E-1,4.3186685E-1,1.2695245E0,6.6668916E-1,2.0026521E-1,-1.7971514E-1,2.5274578E-1,1.4107345E-1,1.191375E0,3.579605E-1,7.6657444E-1,-5.480758E-1,2.5383922E-1,2.9666474E-1,-2.518508E-1,2.5462475E-1,3.1310698E-1,-2.4331622E-1,3.116446E-1,-1.657093E-1,-2.4546078E-1,1.6711952E-1,-1.7293042E-1,2.333958E-1,-1.7062697E-1,2.4683248E-1,-2.556261E-1,-1.9581325E-2,4.6805453E-2,2.1497989E-1,-2.3049359E-1,-4.1954737E-2,4.499459E-2,-2.473542E-1,-7.2567225E-2,1.4663912E-1,2.0197451E-1,-2.2531804E-3,-1.00974336E-1,-1.9863103E-1,-4.8658136E-2,1.7050688E-1,-2.0928955E-1,1.1685158E-1,1.8268971E-1,1.0642743E-1,-5.3684175E-2,2.6661798E-1,-1.9000237E-1,2.7409887E-2,-2.9791406E-1,2.908437E-1,2.539934E-1,1.5097798E-1,-4.092021E-2,2.1156238E-1,-6.252346E-2,3.9609796E-3,-1.4771383E-1,1.2285655E-1,1.0743548E-1,2.4202113E-1,-1.0177435E-1,2.6184678E-1,2.6029757E-1,3.41442E-2,-1.533439E-1,2.8805706E-1,-1.6980977E-1,1.7892599E-1,-2.2750008E-1,1.6667691E-1],"categories":[],"categories_nodes":[],"categories_segments":[],"categories_sizes":[],"default_left":[0,0,0,0,0,0,0,0,0,0,0,0,0,0,0,0,0,0,0,0,0,0,0,0,0,0,0,0,0,0,0,0,0,0,0,0,0,0,0,0,0,0,0,0,0,0,0,0,0,0,0,0,0,0,0,0,0,0,0,0,0,0,0,0,0,0,0,0,0,0,0,0,0,0,0,0,0,0,0,0,0,0,0,0,0,0,0,0,0,0,0,0,0,0,0,0,0,0,0,0,0,0,0,0,0,0,0,0,0,0,0,0,0,0,0,0,0,0,0,0,0,0,0,0,0,0,0,0,0,0,0,0,0],"id":4,"left_children":[1,3,5,-1,7,9,11,-1,13,15,17,19,21,23,25,27,29,31,33,35,37,39,41,43,45,47,49,-1,-1,51,53,55,57,59,61,63,65,67,-1,69,71,73,75,-1,77,79,81,83,85,87,89,91,93,95,97,-1,99,101,103,105,107,109,111,113,115,-1,117,-1,119,121,123,125,127,-1,129,131,-1,-1,-1,-1,-1,-1,-1,-1,-1,-1,-1,-1,-1,-1,-1,-1,-1,-1,-1,-1,-1,-1,-1,-1,-1,-1,-1,-1,-1,-1,-1,-1,-1,-1,-1,-1,-1,-1,-1,-1,-1,-1,-1,-1,-1,-1,-1,-1,-1,-1,-1,-1,-1,-1,-1,-1,-1],"loss_changes":[2.4256496E4,8.8387305E2,5.304557E3,0E0,1.6314062E2,2.6975757E3,1.3386719E1,0E0,1.2161328E2,9.093594E2,1.4779418E3,6.421875E0,4.4126465E1,2.6269531E1,3.420453E1,1.5576172E-1,1.7580857E3,1.2654554E3,8.0650793E2,3.6538086E0,1.1079208E1,6.149228E1,7.866455E0,2.1445312E0,4.5453674E1,8.3772545E0,2.8778921E1,0E0,0E0,3.5895508E2,2.8927783E2,5.188447E2,4.8834302E2,2.7971497E2,6.028646E2,1.2050781E0,2.7344637E0,1.7754423E1,0E0,2.2753998E1,4.8364162E1,2.520752E0,1.817627E2,0E0,2.0614014E1,8.566387E1,1.5842712E1,6.325444E0,8.69072E0,1.1790924E0,5.5530396E0,4.638672E-1,3.6749176E2,5.743216E2,1.4650562E2,0E0,2.3490576E2,2.4509671E2,1.0088422E2,1.0356201E2,3.2352432E2,2.1863037E2,1.4771196E3,2.7832031E-2,2.8610802E0,0E0,1.24185264E-1,0E0,1.3674864E1,2.8475342E0,3.3001858E1,2.1933514E1,2.1507442E1,0E0,3.7562697E0,8.368293E1,0E0,0E0,0E0,0E0,0E0,0E0,0E0,0E0,0E0,0E0,0E0,0E0,0E0,0E0,0E0,0E0,0E0,0E0,0E0,0E0,0E0,0E0,0E0,0E0,0E0,0E0,0E0,0E0,0E0,0E0,0E0,0E0,0E0,0E0,0E0,0E0,0E0,0E0,0E0,0E0,0E0,0E0,0E0,0E0,0E0,0E0,0E0,0E0,0E0,0E0,0E0,0E0,0E0,0E0,0E0,0E0,0E0],"parents":[2147483647,0,0,1,1,2,2,4,4,5,5,6,6,8,8,9,9,10,10,11,11,12,12,13,13,14,14,15,15,16,16,17,17,18,18,19,19,20,20,21,21,22,22,23,23,24,24,25,25,26,26,29,29,30,30,31,31,32,32,33,33,34,34,35,35,36,36,37,37,39,39,40,40,41,41,42,42,44,44,45,45,46,46,47,47,48,48,49,49,50,50,51,51,52,52,53,53,54,54,56,56,57,57,58,58,59,59,60,60,61,61,62,62,63,63,64,64,66,66,68,68,69,69,70,70,71,71,72,72,74,74,75,75],"right_children":[2,4,6,-1,8,10,12,-1,14,16,18,20,22,24,26,28,30,32,34,36,38,40,42,44,46,48,50,-1,-1,52,54,56,58,60,62,64,66,68,-1,70,72,74,76,-1,78,80,82,84,86,88,90,92,94,96,98,-1,100,102,104,106,108,110,112,114,116,-1,118,-1,120,122,124,126,128,-1,130,132,-1,-1,-1,-1,-1,-1,-1,-1,-1,-1,-1,-1,-1,-1,-1,-1,-1,-1,-1,-1,-1,-1,-1,-1,-1,-1,-1,-1,-1,-1,-1,-1,-1,-1,-1,-1,-1,-1,-1,-1,-1,-1,-1,-1,-1,-1,-1,-1,-1,-1,-1,-1,-1,-1,-1,-1,-1],"split_conditions":[1E0,1E0,1E0,2.5297445E-1,2E0,4.0331E0,2E0,2.4670474E-1,4.2819E0,1E0,3E0,8.4E1,1.4E1,3.4E1,4E0,1.03E2,2E0,1.2E1,7.5E1,5.193E0,1.8E1,8E0,3.5216E0,3.6133E0,1.6E1,8E0,6E0,2.4860878E-1,7.0196286E-2,2E0,3E0,1E0,3E0,3E0,1E0,2E0,1E0,7E0,2.5276566E-1,5E0,3.4058E0,6E0,3.5535E0,-2.5327396E-1,3E0,4E0,5.1E1,7E0,1E0,4.6E1,6E0,5.2E1,3E0,2E0,3E0,2.5575635E-1,2E0,2E0,4E0,1E0,1E0,5E0,4E0,5.098E0,3E0,2.0026521E-1,1E0,2.5274578E-1,4.872E0,2.4226E0,1E1,3.9134E0,4.5645E0,2.5383922E-1,1.67E2,7E0,2.5462475E-1,3.1310698E-1,-2.4331622E-1,3.116446E-1,-1.657093E-1,-2.4546078E-1,1.6711952E-1,-1.7293042E-1,2.333958E-1,-1.7062697E-1,2.4683248E-1,-2.556261E-1,-1.9581325E-2,4.6805453E-2,2.1497989E-1,-2.3049359E-1,-4.1954737E-2,4.499459E-2,-2.473542E-1,-7.2567225E-2,1.4663912E-1,2.0197451E-1,-2.2531804E-3,-1.00974336E-1,-1.9863103E-1,-4.8658136E-2,1.7050688E-1,-2.0928955E-1,1.1685158E-1,1.8268971E-1,1.0642743E-1,-5.3684175E-2,2.6661798E-1,-1.9000237E-1,2.7409887E-2,-2.9791406E-1,2.908437E-1,2.539934E-1,1.5097798E-1,-4.092021E-2,2.1156238E-1,-6.252346E-2,3.9609796E-3,-1.4771383E-1,1.2285655E-1,1.0743548E-1,2.4202113E-1,-1.0177435E-1,2.6184678E-1,2.6029757E-1,3.41442E-2,-1.533439E-1,2.8805706E-1,-1.6980977E-1,1.7892599E-1,-2.2750008E-1,1.6667691E-1],"split_indices":[2,9,9,0,3,12,15,0,12,6,3,0,1,0,7,0,3,1,0,12,1,17,11,11,17,17,17,0,0,6,3,15,4,16,14,5,14,17,0,4,11,5,11,0,16,16,0,17,14,0,7,0,7,6,16,0,7,15,16,7,14,15,1,12,16,0,4,0,12,11,6,13,12,0,0,17,0,0,0,0,0,0,0,0,0,0,0,0,0,0,0,0,0,0,0,0,0,0,0,0,0,0,0,0,0,0,0,0,0,0,0,0,0,0,0,0,0,0,0,0,0,0,0,0,0,0,0,0,0,0,0,0,0],"split_type":[0,0,0,0,0,0,0,0,0,0,0,0,0,0,0,0,0,0,0,0,0,0,0,0,0,0,0,0,0,0,0,0,0,0,0,0,0,0,0,0,0,0,0,0,0,0,0,0,0,0,0,0,0,0,0,0,0,0,0,0,0,0,0,0,0,0,0,0,0,0,0,0,0,0,0,0,0,0,0,0,0,0,0,0,0,0,0,0,0,0,0,0,0,0,0,0,0,0,0,0,0,0,0,0,0,0,0,0,0,0,0,0,0,0,0,0,0,0,0,0,0,0,0,0,0,0,0,0,0,0,0,0,0],"sum_hessian":[4.0012977E4,1.1846242E4,2.8166734E4,1.4273856E2,1.1703504E4,2.0668346E4,7.4983887E3,2.6024603E1,1.16774795E4,9.22991E3,1.1438437E4,4.4806284E3,3.0177603E3,1.1572034E4,1.0544506E2,1.9908425E3,7.2390674E3,5.697197E3,5.7412393E3,4.344559E3,1.3606926E2,4.3709396E2,2.5806663E3,1.0927187E4,6.448471E2,5.8674213E1,4.6770847E1,1.989705E3,1.1375747E0,1.4757607E3,5.7633066E3,4.180372E3,1.516825E3,3.8660166E3,1.8752227E3,4.3382314E3,6.3275914E0,5.620278E1,7.986648E1,3.2264993E2,1.1444403E2,1.5757676E3,1.0048986E3,9.476171E3,1.4510164E3,1.8078932E2,4.6405777E2,4.8675647E0,5.380665E1,8.205094E0,3.8565754E1,5.310423E2,9.447185E2,2.9268284E3,2.8364783E3,1.2424585E2,4.0561262E3,1.2183608E3,2.9846417E2,3.0267607E3,8.392558E2,1.125375E3,7.4984766E2,4.331471E3,6.7605515E0,2.8777864E0,3.449805E0,2.544059E1,3.0762192E1,2.8443597E2,3.8213974E1,6.851247E1,4.593156E1,1.5723934E3,3.3741043E0,8.5080185E1,9.198184E2,1.8584671E0,1.4491578E3,1.5613552E1,1.6517577E2,4.6095453E2,3.1032305E0,1.4837728E0,3.3837917E0,5.258487E1,1.2217796E0,7.064236E0,1.1408579E0,1.1903334E1,2.666242E1,5.3002466E2,1.0176437E0,7.1981714E2,2.2490137E2,6.0106915E2,2.325759E3,2.6882534E3,1.4822462E2,1.6991072E3,2.357019E3,2.5868433E2,9.5967645E2,2.5457751E2,4.3886646E1,1.1577241E3,1.8690366E3,6.85735E2,1.5352083E2,8.92329E2,2.3304599E2,2.602567E2,4.8959097E2,4.3262837E3,5.187545E0,2.242314E0,4.518237E0,1.7303536E0,1.7194514E0,1.056405E1,2.0198143E1,8.743208E0,2.7569275E2,2.0237736E1,1.797624E1,3.5478363E1,3.3034103E1,4.1934742E1,3.9968214E0,1.0130956E0,2.3610086E0,4.6821484E1,3.82587E1],"tree_param":{"num_deleted":"0","num_feature":"18","num_nodes":"133","size_leaf_vector":"1"}},{"base_weights":[-1.5223252E-3,-1.137979E0,4.462211E-1,2.4054335E-1,-1.1665391E0,2.0921488E-1,1.1593965E0,2.3349325E-1,-1.1718692E0,5.18235E-1,-1.4135897E-1,1.1977514E0,1.1024752E0,-1.1820638E0,-1.4277636E-1,2.3493914E-1,3.8317215E-1,-4.9590796E-1,1.8118837E-1,1.2085847E0,1.0064237E0,7.9468226E-1,1.1563721E0,-1.1955352E0,-9.5934516E-1,-4.6378702E-1,5.914201E-1,-4.6324745E-1,5.8579206E-1,-7.696148E-1,9.630935E-2,5.279562E-1,-9.940456E-2,2.4189578E-1,5.228327E-1,4.8722634E-1,1.2070808E0,1.0162905E0,2.1031728E-1,1.2039495E0,1.0808764E0,-2.407594E-1,-1.1411225E0,-5.348377E-1,-1.1349496E0,-2.9739636E-1,-2.4433143E-1,-6.969828E-1,1.0707566E0,-1.1040283E0,-7.962606E-2,6.492094E-1,-2.8252152E-1,-1.1220888E0,-5.815462E-1,-1.6993521E-1,1.233154E0,6.391923E-1,1.4363872E-1,-2.0201434E-1,1.3448937E0,8.347592E-1,-1.0998497E-1,1.195308E-2,1.0613623E0,6.281599E-2,2.422326E-1,1.1157045E0,3.175238E-1,6.663139E-1,-4.5798796E-1,1.2060355E0,2.545464E-1,-2.2235224E-1,2.4192367E-1,2.4674733E-1,-2.2922583E-1,2.3630463E-1,-1.459415E-1,-2.3022568E-1,1.3991258E-1,-1.1159893E-1,1.3334058E-1,-2.0360349E-1,1.6337635E-1,2.3584834E-1,7.46524E-2,-2.140723E-1,-2.4621832E-1,1.0619535E-1,-1.4585434E-1,4.674923E-2,1.5342894E-1,-1.5608314E-1,1.5664704E-1,-2.2915517E-1,2.3213755E-1,-1.6008647E-1,-1.7254418E-2,6.1395723E-2,-1.3540797E-1,2.714561E-1,-1.0791417E-1,1.1481302E-1,2.2523263E-1,-4.366037E-2,1.9241884E-1,-9.750293E-2,7.1570225E-2,1.357808E-1,2.730455E-1,4.500733E-2,1.8991971E-1,-6.7401536E-2,2.3502254E-1,-2.6408473E-2,2.2949104E-1,9.148728E-2,2.2738563E-1,-8.324121E-2,2.4434245E-1,2.3964106E-1,2.767232E-2,-1.2883964E-1,2.700853E-1,8.973351E-2,2.4135318E-1,-1.6948593E-1,1.7271826E-1,-2.0029426E-1,1.49146E-1],"categories":[],"categories_nodes":[],"categories_segments":[],"categories_sizes":[],"default_left":[0,0,0,0,0,0,0,0,0,0,0,0,0,0,0,0,0,0,0,0,0,0,0,0,0,0,0,0,0,0,0,0,0,0,0,0,0,0,0,0,0,0,0,0,0,0,0,0,0,0,0,0,0,0,0,0,0,0,0,0,0,0,0,0,0,0,0,0,0,0,0,0,0,0,0,0,0,0,0,0,0,0,0,0,0,0,0,0,0,0,0,0,0,0,0,0,0,0,0,0,0,0,0,0,0,0,0,0,0,0,0,0,0,0,0,0,0,0,0,0,0,0,0,0,0,0,0,0,0,0,0],"id":5,"left_children":[1,3,5,-1,7,9,11,-1,13,15,17,19,21,23,25,-1,27,29,31,33,35,37,39,41,43,45,47,49,51,53,55,57,59,-1,61,63,65,67,69,71,73,-1,75,77,79,81,-1,83,85,87,89,91,93,95,97,99,101,103,105,107,109,111,-1,113,115,-1,-1,117,119,121,123,125,127,129,-1,-1,-1,-1,-1,-1,-1,-1,-1,-1,-1,-1,-1,-1,-1,-1,-1,-1,-1,-1,-1,-1,-1,-1,-1,-1,-1,-1,-1,-1,-1,-1,-1,-1,-1,-1,-1,-1,-1,-1,-1,-1,-1,-1,-1,-1,-1,-1,-1,-1,-1,-1,-1,-1,-1,-1,-1],"loss_changes":[1.8342045E4,6.824678E2,4.3705938E3,0E0,1.2658789E2,2.1028438E3,1.2761719E1,0E0,1.0519629E2,9.1425684E2,1.0401125E3,6.7456055E0,4.2362793E1,2.869043E1,2.3761158E1,0E0,1.4679313E3,7.023534E2,4.6347946E2,1.5942383E0,2.1482254E1,5.0547867E1,6.6657715E0,2.8398438E0,4.205243E1,8.450987E0,1.974038E1,4.063618E2,3.804287E2,1.9577588E2,4.1498447E2,9.098193E1,3.9054755E2,0E0,2.6307359E0,1.655841E1,1.741333E-1,1.9370392E1,3.3534267E1,2.3703613E0,1.4577405E2,0E0,1.6333496E1,5.750273E1,1.279364E1,1.5103951E1,0E0,5.179082E0,1.285841E0,1.3307495E0,4.1108386E2,3.151482E2,2.5037814E2,5.7018433E1,2.0962573E2,2.6894485E2,5.7976837E1,5.1743164E1,1.4225131E2,3.9332797E2,1.4404602E0,1.6617417E-1,0E0,1.4292411E1,2.9761753E0,0E0,0E0,2.947174E0,2.4898174E1,1.8149448E1,1.5961828E1,2.0446777E-1,3.571647E0,6.0192398E1,0E0,0E0,0E0,0E0,0E0,0E0,0E0,0E0,0E0,0E0,0E0,0E0,0E0,0E0,0E0,0E0,0E0,0E0,0E0,0E0,0E0,0E0,0E0,0E0,0E0,0E0,0E0,0E0,0E0,0E0,0E0,0E0,0E0,0E0,0E0,0E0,0E0,0E0,0E0,0E0,0E0,0E0,0E0,0E0,0E0,0E0,0E0,0E0,0E0,0E0,0E0,0E0,0E0,0E0,0E0,0E0,0E0],"parents":[2147483647,0,0,1,1,2,2,4,4,5,5,6,6,8,8,9,9,10,10,11,11,12,12,13,13,14,14,16,16,17,17,18,18,19,19,20,20,21,21,22,22,23,23,24,24,25,25,26,26,27,27,28,28,29,29,30,30,31,31,32,32,34,34,35,35,36,36,37,37,38,38,39,39,40,40,42,42,43,43,44,44,45,45,47,47,48,48,49,49,50,50,51,51,52,52,53,53,54,54,55,55,56,56,57,57,58,58,59,59,60,60,61,61,63,63,64,64,67,67,68,68,69,69,70,70,71,71,72,72,73,73],"right_children":[2,4,6,-1,8,10,12,-1,14,16,18,20,22,24,26,-1,28,30,32,34,36,38,40,42,44,46,48,50,52,54,56,58,60,-1,62,64,66,68,70,72,74,-1,76,78,80,82,-1,84,86,88,90,92,94,96,98,100,102,104,106,108,110,112,-1,114,116,-1,-1,118,120,122,124,126,128,130,-1,-1,-1,-1,-1,-1,-1,-1,-1,-1,-1,-1,-1,-1,-1,-1,-1,-1,-1,-1,-1,-1,-1,-1,-1,-1,-1,-1,-1,-1,-1,-1,-1,-1,-1,-1,-1,-1,-1,-1,-1,-1,-1,-1,-1,-1,-1,-1,-1,-1,-1,-1,-1,-1,-1,-1,-1],"split_conditions":[1E0,1E0,1E0,2.4054335E-1,2E0,4.1E1,2E0,2.3349325E-1,4.2819E0,1E0,3E0,7.8E1,1.4E1,3.4E1,6E0,2.3493914E-1,2E0,1.1E1,5.9E1,2E0,3.3842E0,8E0,3.5216E0,3.6133E0,1.6E1,4E0,7E0,2E0,1E0,2E0,1E0,3E0,3E0,2.4189578E-1,3.1E1,3E0,1.2E1,5E0,3.4058E0,6E0,3.5535E0,-2.407594E-1,3E0,4E0,5.1E1,4.2E1,-2.4433143E-1,4.9E1,4.5645E0,4.1692E0,3.8802E0,2E0,3E0,7E0,4E0,7.6E1,6E0,2.4956E0,5E0,6E0,2.5E1,3.2211E0,-1.0998497E-1,2E0,4.4671E0,6.281599E-2,2.422326E-1,2.4226E0,1E1,3.9134E0,5.6E1,2.7193E0,4.2432E0,7E0,2.4192367E-1,2.4674733E-1,-2.2922583E-1,2.3630463E-1,-1.459415E-1,-2.3022568E-1,1.3991258E-1,-1.1159893E-1,1.3334058E-1,-2.0360349E-1,1.6337635E-1,2.3584834E-1,7.46524E-2,-2.140723E-1,-2.4621832E-1,1.0619535E-1,-1.4585434E-1,4.674923E-2,1.5342894E-1,-1.5608314E-1,1.5664704E-1,-2.2915517E-1,2.3213755E-1,-1.6008647E-1,-1.7254418E-2,6.1395723E-2,-1.3540797E-1,2.714561E-1,-1.0791417E-1,1.1481302E-1,2.2523263E-1,-4.366037E-2,1.9241884E-1,-9.750293E-2,7.1570225E-2,1.357808E-1,2.730455E-1,4.500733E-2,1.8991971E-1,-6.7401536E-2,2.3502254E-1,-2.6408473E-2,2.2949104E-1,9.148728E-2,2.2738563E-1,-8.324121E-2,2.4434245E-1,2.3964106E-1,2.767232E-2,-1.2883964E-1,2.700853E-1,8.973351E-2,2.4135318E-1,-1.6948593E-1,1.7271826E-1,-2.0029426E-1,1.49146E-1],"split_indices":[2,9,9,0,3,0,15,0,12,6,3,0,1,0,7,0,3,1,0,5,11,17,11,11,17,4,17,6,5,3,14,17,8,0,2,3,1,4,11,5,11,0,16,16,0,0,0,0,12,12,13,6,3,17,15,0,4,11,6,6,1,11,0,5,12,0,0,11,6,13,0,11,13,17,0,0,0,0,0,0,0,0,0,0,0,0,0,0,0,0,0,0,0,0,0,0,0,0,0,0,0,0,0,0,0,0,0,0,0,0,0,0,0,0,0,0,0,0,0,0,0,0,0,0,0,0,0,0,0,0,0],"split_type":[0,0,0,0,0,0,0,0,0,0,0,0,0,0,0,0,0,0,0,0,0,0,0,0,0,0,0,0,0,0,0,0,0,0,0,0,0,0,0,0,0,0,0,0,0,0,0,0,0,0,0,0,0,0,0,0,0,0,0,0,0,0,0,0,0,0,0,0,0,0,0,0,0,0,0,0,0,0,0,0,0,0,0,0,0,0,0,0,0,0,0,0,0,0,0,0,0,0,0,0,0,0,0,0,0,0,0,0,0,0,0,0,0,0,0,0,0,0,0,0,0,0,0,0,0,0,0,0,0,0,0],"sum_hessian":[3.604471E4,1.0186901E4,2.5857807E4,1.2230189E2,1.00646E4,1.9409E4,6.448808E3,2.24347E1,1.0042165E4,1.0315618E4,9.093382E3,3.8407659E3,2.608042E3,9.943512E3,9.865367E1,1.7589083E3,8.55671E3,4.3315444E3,4.7618374E3,3.6299187E3,2.108473E2,3.9098117E2,2.2170608E3,9.372251E3,5.7126086E2,6.889793E1,2.975574E1,1.6524631E3,6.9042466E3,2.962197E3,1.3693472E3,2.1293816E3,2.6324556E3,3.6244287E3,5.4899635E0,5.9728577E1,1.5111873E2,2.829421E2,1.08039055E2,1.350824E3,8.662368E2,8.118454E3,1.2537968E3,1.6834586E2,4.0291498E2,5.7636276E1,1.1261654E1,7.9453816E0,2.1810358E1,6.181164E2,1.0343467E3,6.4345513E3,4.6969525E2,1.0288965E3,1.9333005E3,1.1101945E3,2.5915268E2,1.6508885E3,4.7849304E2,2.458642E3,1.7381345E2,4.4251237E0,1.0648397E0,3.3236237E1,2.649234E1,1.0423292E0,1.5007639E2,2.471791E2,3.576302E1,6.422213E1,4.3816925E1,1.3475928E3,3.2312481E0,7.7813995E1,7.884228E2,2.1213362E0,1.2516754E3,1.6648363E1,1.516975E2,3.9976193E2,3.1530626E0,4.5703686E1,1.1932589E1,6.825486E0,1.1198957E0,1.8276962E1,3.5333962E0,4.9609454E2,1.2202186E2,5.332897E2,5.0105704E2,1.4233492E3,5.011202E3,3.2031845E2,1.493768E2,1.0188228E3,1.0073607E1,1.3403274E3,5.929732E2,5.723316E2,5.378629E2,2.4241324E2,1.6739439E1,1.4580665E3,1.9282207E2,3.3228287E2,1.4621016E2,1.6283854E3,8.302569E2,6.1684117E0,1.6764503E2,1.1704378E0,3.2546859E0,2.6112473E1,7.1237655E0,1.746665E0,2.4745676E1,8.424943E0,2.3875415E2,2.004037E1,1.5722649E1,3.1359314E1,3.2862816E1,4.0310028E1,3.5068965E0,1.8911383E0,1.3457017E3,1.0108527E0,2.2203953E0,4.3095757E1,3.471824E1],"tree_param":{"num_deleted":"0","num_feature":"18","num_nodes":"131","size_leaf_vector":"1"}},{"base_weights":[-1.8972259E-3,-1.0881562E0,3.9468947E-1,2.3119394E-1,-1.1154352E0,1.7982742E-1,1.1092027E0,2.23122E-1,-1.120562E0,1.1492983E0,8.276101E-2,1.1503385E0,1.0487214E0,-1.1314436E0,-1.21763095E-1,1.1314539E0,1.7491217E0,-5.832855E-1,2.1647082E-1,1.162608E0,9.405619E-1,7.2759795E-1,1.1076688E0,-1.1444596E0,-8.3211076E-1,-5.145422E-1,3.924422E-1,1.1210383E0,1.2558582E0,5.2815955E-2,1.7780991E0,8.799604E-1,-6.580228E-1,4.1190845E-1,-1.8120223E-1,2.3272097E-1,4.7090542E-1,4.2301053E-1,2.3231061E-1,9.500462E-1,1.8583614E-1,1.1561755E0,1.0310785E0,-1.1526475E0,-1.039254E0,-3.3416763E-1,-1.0320855E0,-1.4246453E-1,-8.754834E-1,-9.741752E-1,6.933406E-1,2.2429363E-1,5.7121295E-2,2.5277188E-1,1.0252913E-1,2.459309E-1,3.7765226E-1,1.3069165E0,4.0652704E-1,-4.8698464E-1,-1.0698931E0,1.2843646E0,3.5137746E-1,-6.9476926E-1,1.098519E-1,-2.601535E-1,1.8147455E-1,-6.043418E-2,1.0041475E0,1.075088E0,3.6623278E-1,5.798474E-1,-3.8105714E-1,1.158526E0,2.1775226E-1,-1.9663936E-1,2.3234041E-1,-2.3109029E-1,-2.1697555E-1,-2.1287692E-1,1.1676275E-1,3.0200636E-1,-1.0726037E-1,-2.1236227E-1,6.551784E-2,-1.0985162E-1,2.4179788E-1,-2.0792226E-1,8.444927E-2,-2.2185138E-1,-1.3095907E-2,5.5125035E-2,1.7938288E-1,2.6443657E-1,8.7572604E-2,-1.3447094E-2,2.100389E-1,-1.270035E-1,1.1768768E-1,-2.1990125E-1,9.429371E-2,2.4654984E-1,2.883767E-1,3.1956773E-2,1.11382686E-1,-1.5114523E-1,2.3184541E-1,4.9151506E-2,-1.3446629E-1,-6.839048E-2,-1.0279929E-2,-1.2633203E-1,1.514291E-1,-8.689921E-2,2.1593158E-1,7.301961E-2,2.2039385E-1,-1.8874514E-1,1.8164295E-1,2.225734E-1,2.2409478E-2,1.268252E-1,-1.3824233E-1,2.3187755E-1,8.057665E-2,-1.5187764E-1,1.6318086E-1,2.396094E-1,-1.3435368E-1],"categories":[],"categories_nodes":[],"categories_segments":[],"categories_sizes":[],"default_left":[0,0,0,0,0,0,0,0,0,0,0,0,0,0,0,0,0,0,0,0,0,0,0,0,0,0,0,0,0,0,0,0,0,0,0,0,0,0,0,0,0,0,0,0,0,0,0,0,0,0,0,0,0,0,0,0,0,0,0,0,0,0,0,0,0,0,0,0,0,0,0,0,0,0,0,0,0,0,0,0,0,0,0,0,0,0,0,0,0,0,0,0,0,0,0,0,0,0,0,0,0,0,0,0,0,0,0,0,0,0,0,0,0,0,0,0,0,0,0,0,0,0,0,0,0,0,0,0,0],"id":6,"left_children":[1,3,5,-1,7,9,11,-1,13,15,17,19,21,23,25,27,29,31,33,35,37,39,41,43,45,47,49,51,53,-1,55,57,59,61,63,-1,65,67,-1,69,71,73,75,77,79,81,83,85,87,89,91,-1,-1,-1,-1,-1,-1,93,95,97,99,101,103,105,107,109,-1,111,113,115,117,119,121,123,125,127,-1,-1,-1,-1,-1,-1,-1,-1,-1,-1,-1,-1,-1,-1,-1,-1,-1,-1,-1,-1,-1,-1,-1,-1,-1,-1,-1,-1,-1,-1,-1,-1,-1,-1,-1,-1,-1,-1,-1,-1,-1,-1,-1,-1,-1,-1,-1,-1,-1,-1,-1,-1,-1],"loss_changes":[1.3988295E4,5.3291895E2,3.651549E3,0E0,9.939453E1,1.7209094E3,1.2474121E1,0E0,9.2913086E1,1.5835449E1,1.4807098E3,7.303711E0,4.1546387E1,3.204297E1,1.906364E1,6.9018555E-1,1.5207672E0,3.045749E2,1.0762157E3,1.5751953E0,2.0726944E1,4.1993988E1,5.8237305E0,5.7910156E0,3.516176E1,7.043932E0,1.7539465E1,2.1960449E-1,4.647827E-2,0E0,4.0852356E-1,2.6860092E1,1.8582764E2,4.8984753E2,6.8217053E2,0E0,2.1855295E0,1.6098331E1,0E0,1.7697601E1,2.32495E1,2.2797852E0,1.191416E2,1.7675781E-1,2.4932068E1,3.944778E1,1.0610931E1,1.5770538E1,6.168598E0,8.867674E-1,2.6605415E0,0E0,0E0,0E0,0E0,0E0,0E0,3.603897E-1,2.0108322E1,2.9822287E2,3.5908936E1,3.1167603E0,3.4184753E2,1.8743805E2,3.0987427E2,3.4696102E-2,0E0,1.5471785E1,3.2913456E0,3.4832916E0,3.2971016E1,1.5140537E1,1.3939217E1,2.783203E-1,3.015713E0,4.862251E1,0E0,0E0,0E0,0E0,0E0,0E0,0E0,0E0,0E0,0E0,0E0,0E0,0E0,0E0,0E0,0E0,0E0,0E0,0E0,0E0,0E0,0E0,0E0,0E0,0E0,0E0,0E0,0E0,0E0,0E0,0E0,0E0,0E0,0E0,0E0,0E0,0E0,0E0,0E0,0E0,0E0,0E0,0E0,0E0,0E0,0E0,0E0,0E0,0E0,0E0,0E0,0E0,0E0],"parents":[2147483647,0,0,1,1,2,2,4,4,5,5,6,6,8,8,9,9,10,10,11,11,12,12,13,13,14,14,15,15,16,16,17,17,18,18,19,19,20,20,21,21,22,22,23,23,24,24,25,25,26,26,27,27,28,28,30,30,31,31,32,32,33,33,34,34,36,36,37,37,39,39,40,40,41,41,42,42,43,43,44,44,45,45,46,46,47,47,48,48,49,49,50,50,57,57,58,58,59,59,60,60,61,61,62,62,63,63,64,64,65,65,67,67,68,68,69,69,70,70,71,71,72,72,73,73,74,74,75,75],"right_children":[2,4,6,-1,8,10,12,-1,14,16,18,20,22,24,26,28,30,32,34,36,38,40,42,44,46,48,50,52,54,-1,56,58,60,62,64,-1,66,68,-1,70,72,74,76,78,80,82,84,86,88,90,92,-1,-1,-1,-1,-1,-1,94,96,98,100,102,104,106,108,110,-1,112,114,116,118,120,122,124,126,128,-1,-1,-1,-1,-1,-1,-1,-1,-1,-1,-1,-1,-1,-1,-1,-1,-1,-1,-1,-1,-1,-1,-1,-1,-1,-1,-1,-1,-1,-1,-1,-1,-1,-1,-1,-1,-1,-1,-1,-1,-1,-1,-1,-1,-1,-1,-1,-1,-1,-1,-1,-1,-1],"split_conditions":[1E0,1E0,1E0,2.3119394E-1,2E0,1E0,2E0,2.23122E-1,4.2819E0,6.1E1,2E0,7.8E1,1.4E1,3.5E1,4E0,4.1E1,3.7672E0,2.9219E0,5.4E1,2E0,1.8E1,8E0,3.5216E0,3.6978E0,1.6E1,1.2E1,6E0,4.1E1,4.5515E0,5.2815955E-2,3E0,2.3219E0,2E0,1.5E0,4E0,2.3272097E-1,3E0,3E0,2.3231061E-1,4E0,3.4058E0,6E0,3.5535E0,3.2E1,5E0,4E0,4.7E1,1.1E1,5.3E1,4.6E1,6E0,2.2429363E-1,5.7121295E-2,2.5277188E-1,1.0252913E-1,2.459309E-1,3.7765226E-1,9.8E1,2E0,2E0,3E0,3E0,3E0,3.5E1,4E0,3.125E0,1.8147455E-1,2.75E0,4.3204E0,2.4226E0,2.9528E0,3.9134E0,1E0,1.22E2,4.732E0,3E0,2.3234041E-1,-2.3109029E-1,-2.1697555E-1,-2.1287692E-1,1.1676275E-1,3.0200636E-1,-1.0726037E-1,-2.1236227E-1,6.551784E-2,-1.0985162E-1,2.4179788E-1,-2.0792226E-1,8.444927E-2,-2.2185138E-1,-1.3095907E-2,5.5125035E-2,1.7938288E-1,2.6443657E-1,8.7572604E-2,-1.3447094E-2,2.100389E-1,-1.270035E-1,1.1768768E-1,-2.1990125E-1,9.429371E-2,2.4654984E-1,2.883767E-1,3.1956773E-2,1.11382686E-1,-1.5114523E-1,2.3184541E-1,4.9151506E-2,-1.3446629E-1,-6.839048E-2,-1.0279929E-2,-1.2633203E-1,1.514291E-1,-8.689921E-2,2.1593158E-1,7.301961E-2,2.2039385E-1,-1.8874514E-1,1.8164295E-1,2.225734E-1,2.2409478E-2,1.268252E-1,-1.3824233E-1,2.3187755E-1,8.057665E-2,-1.5187764E-1,1.6318086E-1,2.396094E-1,-1.3435368E-1],"split_indices":[2,9,9,0,3,15,15,0,12,2,3,0,1,0,7,2,12,13,0,5,1,17,11,11,17,17,17,0,12,0,3,13,4,13,6,0,16,3,0,4,11,5,11,0,7,16,0,17,0,0,7,0,0,0,0,0,0,0,15,16,16,17,3,1,4,11,0,13,12,11,11,13,7,2,12,7,0,0,0,0,0,0,0,0,0,0,0,0,0,0,0,0,0,0,0,0,0,0,0,0,0,0,0,0,0,0,0,0,0,0,0,0,0,0,0,0,0,0,0,0,0,0,0,0,0,0,0,0,0],"split_type":[0,0,0,0,0,0,0,0,0,0,0,0,0,0,0,0,0,0,0,0,0,0,0,0,0,0,0,0,0,0,0,0,0,0,0,0,0,0,0,0,0,0,0,0,0,0,0,0,0,0,0,0,0,0,0,0,0,0,0,0,0,0,0,0,0,0,0,0,0,0,0,0,0,0,0,0,0,0,0,0,0,0,0,0,0,0,0,0,0,0,0,0,0,0,0,0,0,0,0,0,0,0,0,0,0,0,0,0,0,0,0,0,0,0,0,0,0,0,0,0,0,0,0,0,0,0,0,0,0],"sum_hessian":[3.2468822E4,8.683312E3,2.378551E4,1.0378743E2,8.579524E3,1.8287506E4,5.498004E3,1.917332E1,8.560352E3,1.6633739E3,1.662413E4,3.2616226E3,2.2363816E3,8.467962E3,9.23891E1,1.618122E3,4.5252007E1,2.7787961E3,1.3845336E4,3.077106E3,1.845165E2,3.4892242E2,1.8874591E3,8.1123843E3,3.555779E2,5.237866E1,4.001044E1,1.5023507E3,1.1577123E2,1.0596576E0,4.4192352E1,1.3451024E2,2.644286E3,9.283095E3,4.562241E3,3.0719963E3,5.109605E0,5.608413E1,1.2843236E2,2.4682292E2,1.020995E2,1.1469608E3,7.404983E2,7.5173716E3,5.9501276E2,1.0264926E2,2.5292863E2,2.64782E1,2.5900455E1,6.816008E0,3.319443E1,1.5012358E3,1.1148632E0,1.13845085E2,1.9261466E0,9.426184E0,3.4766167E1,6.980109E1,6.470916E1,1.8699362E3,7.743498E2,6.0096344E2,8.682131E3,1.6497892E3,2.9124517E3,2.0611863E0,3.0484183E0,3.1104485E1,2.4979647E1,2.0259041E2,4.4232525E1,6.0220936E1,4.187857E1,1.1438612E3,3.099594E0,7.116067E1,6.6933765E2,7.2032954E3,3.140761E2,5.8627936E2,8.7334E0,9.5004225E0,9.314884E1,2.477317E2,5.196931E0,2.080837E1,5.6698313E0,2.316909E1,2.731367E0,5.7417574E0,1.0742509E0,1.16479E1,2.1546534E1,6.808368E1,1.7174037E0,3.7789944E1,2.691922E1,1.6440419E3,2.258942E2,7.600344E2,1.4315372E1,4.592905E2,1.4167293E2,4.494391E3,4.1877397E3,1.5978466E3,5.194266E1,2.4819028E3,4.305489E2,1.0224719E0,1.0387144E0,1.8444853E1,1.2659633E1,1.0086412E0,2.3971004E1,7.9225016E0,1.9466791E2,1.2727994E1,3.150453E1,2.7503742E1,3.2717194E1,9.555945E0,3.2322624E1,1.1420245E3,1.8367134E0,1.0745891E0,2.025005E0,1.769564E1,5.3465027E1],"tree_param":{"num_deleted":"0","num_feature":"18","num_nodes":"129","size_leaf_vector":"1"}},{"base_weights":[-2.2399956E-3,-1.0476372E0,3.467902E-1,2.2396202E-1,-1.0738617E0,1.5326245E-1,1.068323E0,-1.093032E0,-4.306872E-1,1.0990477E0,6.915976E-2,1.1135608E0,1.0026289E0,2.1429673E-1,-1.0980579E0,2.1552473E-2,-9.053305E-1,1.0848255E0,1.4954469E0,1.8285555E-1,-5.167145E-1,1.1274606E0,8.8375515E-1,6.66958E-1,1.067396E0,-1.1136439E0,-9.413719E-1,2.984788E-1,-1.0945371E0,-9.5799327E-1,1.8731667E-1,2.1729688E-1,2.2773E-1,3.0582145E-1,5.3254254E-2,2.9511222E-1,-3.497333E-1,-6.256447E-1,9.071506E-1,2.2572158E-1,4.208421E-1,3.728214E-1,2.2500019E-1,8.931931E-1,1.6214202E-1,9.987743E-1,1.1314073E0,-1.114971E0,-7.3351747E-1,-9.944698E-1,4.016262E-2,-1.8191515E-1,9.144965E-1,-2.4063046E-1,8.586127E-2,-9.827492E-1,1.2743887E-1,1.5010189E-1,-7.7050015E-2,-2.6512855E-1,3.9171326E-1,-6.3520885E-1,1.376793E-1,-7.400942E-1,-2.4946671E-2,3.841577E-1,1.2719091E0,7.350828E-1,-9.914247E-2,2.2517669E-1,1.5924575E-2,1.022467E0,3.254436E-1,-1.8142079E-1,7.804422E-1,2.820427E-1,1.0882273E0,7.682277E-2,2.2652565E-1,-2.2373748E-1,-2.075237E-1,-1.6379167E-1,1.325863E-1,-1.517794E-1,-2.1925227E-1,-2.0825687E-1,8.459692E-2,2.7506337E-1,-7.093865E-2,2.1403049E-1,-6.937831E-2,-2.0176104E-1,1.15752004E-1,-1.9830531E-1,2.2973865E-3,2.4509314E-1,6.879882E-2,-7.4153714E-2,-1.9589745E-1,-4.010095E-2,9.544782E-2,-1.599664E-1,-4.16841E-2,-8.600163E-2,1.4740355E-1,-2.5667117E-3,2.5507963E-1,4.8609693E-2,2.5760552E-1,1.7616782E-1,2.0890472E-2,-8.170802E-2,1.553195E-1,6.6834524E-2,2.1098085E-1,-1.6404049E-1,1.6385837E-1,2.3872994E-1,-9.285616E-2,2.0677438E-1,-1.4519228E-1,2.2342992E-1,-1.1376851E-1,1.6290317E-1,2.2211249E-1],"categories":[],"categories_nodes":[],"categories_segments":[],"categories_sizes":[],"default_left":[0,0,0,0,0,0,0,0,0,0,0,0,0,0,0,0,0,0,0,0,0,0,0,0,0,0,0,0,0,0,0,0,0,0,0,0,0,0,0,0,0,0,0,0,0,0,0,0,0,0,0,0,0,0,0,0,0,0,0,0,0,0,0,0,0,0,0,0,0,0,0,0,0,0,0,0,0,0,0,0,0,0,0,0,0,0,0,0,0,0,0,0,0,0,0,0,0,0,0,0,0,0,0,0,0,0,0,0,0,0,0,0,0,0,0,0,0,0,0,0,0,0,0,0,0],"id":7,"left_children":[1,3,5,-1,7,9,11,13,15,17,19,21,23,-1,25,27,29,31,33,35,37,39,41,43,45,47,49,51,53,55,-1,-1,57,-1,-1,59,61,63,65,-1,67,69,-1,71,73,75,77,79,81,83,85,87,89,-1,-1,91,-1,-1,-1,93,95,97,99,101,103,105,107,109,-1,-1,111,113,115,117,119,121,123,-1,-1,-1,-1,-1,-1,-1,-1,-1,-1,-1,-1,-1,-1,-1,-1,-1,-1,-1,-1,-1,-1,-1,-1,-1,-1,-1,-1,-1,-1,-1,-1,-1,-1,-1,-1,-1,-1,-1,-1,-1,-1,-1,-1,-1,-1,-1,-1],"loss_changes":[1.072667E4,4.1945898E2,3.077389E3,0E0,8.917969E1,1.3823564E3,1.2735352E1,7.797754E1,4.5546314E1,6.378662E0,1.0633115E3,7.791504E0,4.0829712E1,0E0,1.6154297E1,3.4197464E1,1.0937508E1,1.7059326E0,1.5172882E0,7.9933826E2,4.0295752E2,1.6252441E0,1.9492584E1,3.5455856E1,5.8985596E0,2.411621E0,3.359143E1,2.6382244E1,4.157776E0,4.6196594E0,0E0,0E0,1.5449533E0,0E0,0E0,5.976679E2,3.239628E2,1.6570782E2,3.476111E1,0E0,2.0332327E0,1.4309263E1,0E0,1.544957E1,2.089308E1,4.975067E1,3.133545E-1,6.723633E-1,3.5489454E0,1.3813782E1,1.4516347E1,1.410392E1,8.024807E0,0E0,0E0,4.6514053E0,0E0,0E0,0E0,3.264185E2,3.742843E2,1.332909E2,9.891659E1,6.414197E1,1.1970438E2,2.7385662E1,1.4850311E0,3.4163046E-1,0E0,0E0,1.2322315E1,3.5475311E0,2.4065628E1,2.529432E1,1.4143517E1,6.315373E1,3.336731E0,0E0,0E0,0E0,0E0,0E0,0E0,0E0,0E0,0E0,0E0,0E0,0E0,0E0,0E0,0E0,0E0,0E0,0E0,0E0,0E0,0E0,0E0,0E0,0E0,0E0,0E0,0E0,0E0,0E0,0E0,0E0,0E0,0E0,0E0,0E0,0E0,0E0,0E0,0E0,0E0,0E0,0E0,0E0,0E0,0E0,0E0,0E0,0E0],"parents":[2147483647,0,0,1,1,2,2,4,4,5,5,6,6,7,7,8,8,9,9,10,10,11,11,12,12,14,14,15,15,16,16,17,17,18,18,19,19,20,20,21,21,22,22,23,23,24,24,25,25,26,26,27,27,28,28,29,29,32,32,35,35,36,36,37,37,38,38,40,40,41,41,43,43,44,44,45,45,46,46,47,47,48,48,49,49,50,50,51,51,52,52,55,55,59,59,60,60,61,61,62,62,63,63,64,64,65,65,66,66,67,67,70,70,71,71,72,72,73,73,74,74,75,75,76,76],"right_children":[2,4,6,-1,8,10,12,14,16,18,20,22,24,-1,26,28,30,32,34,36,38,40,42,44,46,48,50,52,54,56,-1,-1,58,-1,-1,60,62,64,66,-1,68,70,-1,72,74,76,78,80,82,84,86,88,90,-1,-1,92,-1,-1,-1,94,96,98,100,102,104,106,108,110,-1,-1,112,114,116,118,120,122,124,-1,-1,-1,-1,-1,-1,-1,-1,-1,-1,-1,-1,-1,-1,-1,-1,-1,-1,-1,-1,-1,-1,-1,-1,-1,-1,-1,-1,-1,-1,-1,-1,-1,-1,-1,-1,-1,-1,-1,-1,-1,-1,-1,-1,-1,-1,-1,-1],"split_conditions":[1E0,1E0,1E0,2.2396202E-1,3.7E1,1E0,2E0,2E0,1.8E1,5.9E1,2E0,7.8E1,1.4E1,2.1429673E-1,3.6978E0,4E0,5.2E1,5.8E1,1.6E1,1E0,3.8797E0,2E0,1.8E1,8E0,1E0,3.6E1,4E0,1E0,6.1E1,1E0,1.8731667E-1,2.1729688E-1,4.3957E0,3.0582145E-1,5.3254254E-2,2E0,3E0,1.4E1,3.6E1,2.2572158E-1,3.1E1,3.0221E0,2.2500019E-1,4E0,5E0,7E0,2.8454E0,3.2E1,1E0,1.2E1,6E0,4E0,3E0,-2.4063046E-1,8.586127E-2,3E0,1.2743887E-1,1.5010189E-1,-7.7050015E-2,2E0,1.5E0,4.386E0,3E0,1E0,3.1087E0,9E0,3.9113E0,4.284E0,-9.914247E-2,2.2517669E-1,3E0,2.5E1,2.9528E0,1.3E1,4E0,3.8444E0,4E1,7.682277E-2,2.2652565E-1,-2.2373748E-1,-2.075237E-1,-1.6379167E-1,1.325863E-1,-1.517794E-1,-2.1925227E-1,-2.0825687E-1,8.459692E-2,2.7506337E-1,-7.093865E-2,2.1403049E-1,-6.937831E-2,-2.0176104E-1,1.15752004E-1,-1.9830531E-1,2.2973865E-3,2.4509314E-1,6.879882E-2,-7.4153714E-2,-1.9589745E-1,-4.010095E-2,9.544782E-2,-1.599664E-1,-4.16841E-2,-8.600163E-2,1.4740355E-1,-2.5667117E-3,2.5507963E-1,4.8609693E-2,2.5760552E-1,1.7616782E-1,2.0890472E-2,-8.170802E-2,1.553195E-1,6.6834524E-2,2.1098085E-1,-1.6404049E-1,1.6385837E-1,2.3872994E-1,-9.285616E-2,2.0677438E-1,-1.4519228E-1,2.2342992E-1,-1.1376851E-1,1.6290317E-1,2.2211249E-1],"split_indices":[2,9,9,0,0,15,15,3,17,2,4,0,1,0,11,4,0,0,3,5,11,5,1,17,14,0,7,7,0,14,0,0,12,0,0,3,15,7,1,0,2,11,0,4,6,17,11,0,7,17,17,16,4,0,0,7,0,0,0,6,13,12,3,14,11,7,11,13,0,0,3,0,11,2,4,13,0,0,0,0,0,0,0,0,0,0,0,0,0,0,0,0,0,0,0,0,0,0,0,0,0,0,0,0,0,0,0,0,0,0,0,0,0,0,0,0,0,0,0,0,0,0,0,0,0],"split_type":[0,0,0,0,0,0,0,0,0,0,0,0,0,0,0,0,0,0,0,0,0,0,0,0,0,0,0,0,0,0,0,0,0,0,0,0,0,0,0,0,0,0,0,0,0,0,0,0,0,0,0,0,0,0,0,0,0,0,0,0,0,0,0,0,0,0,0,0,0,0,0,0,0,0,0,0,0,0,0,0,0,0,0,0,0,0,0,0,0,0,0,0,0,0,0,0,0,0,0,0,0,0,0,0,0,0,0,0,0,0,0,0,0,0,0,0,0,0,0,0,0,0,0,0,0],"sum_hessian":[2.9396191E4,7.357471E3,2.203872E4,8.745733E1,7.270014E3,1.737867E4,4.6600513E3,7.058919E3,2.110953E2,1.4181912E3,1.5960479E4,2.7502463E3,1.9098049E3,1.5860702E1,7.043058E3,1.0858767E2,1.0250763E2,1.3726783E3,4.5512814E1,1.3367119E4,2.593359E3,2.5897026E3,1.6054378E2,3.1072055E2,1.5990844E3,6.4002915E3,6.427665E2,8.758778E1,2.0999886E1,1.00124825E2,2.3828099E0,1.3697594E3,2.9188843E0,4.4062183E1,1.4506269E0,1.1040499E4,2.3266206E3,2.409579E3,1.8377982E2,2.5849084E3,4.794217E0,5.2307426E1,1.0823635E2,2.14032E2,9.668857E1,7.797621E2,8.1932227E2,6.376097E3,2.4194323E1,6.0976685E2,3.2999622E1,4.960703E1,3.7980755E1,1.979911E1,1.200775E0,9.897278E1,1.1520448E0,1.4542589E0,1.4646252E0,1.623458E3,9.417041E3,1.4670641E3,8.595566E2,2.0237642E3,3.8581482E2,7.63549E1,1.0742492E2,3.7176235E0,1.0765939E0,1.6126154E1,3.6181274E1,1.7368405E2,4.0347942E1,6.2607082E1,3.4081482E1,8.698198E1,6.927801E2,1.8512063E0,8.17471E2,6.07096E3,3.0513733E2,2.3189056E1,1.0052665E0,1.8653372E2,4.2323315E2,8.177814E0,2.482181E1,4.2592053E0,4.5347824E1,3.3943695E1,4.0370607E0,9.769653E1,1.2762455E0,4.4701163E2,1.1764464E3,5.0846298E2,8.908578E3,8.3091504E2,6.36149E2,4.3085587E2,4.287007E2,1.8188927E3,2.048715E2,2.5218732E2,1.336275E2,5.3506664E1,2.2848234E1,1.9050155E0,1.05519905E2,2.697416E0,1.0202073E0,2.351984E1,1.2661433E1,8.325491E0,1.6535857E2,1.1954544E1,2.8393398E1,1.0132059E1,5.2475025E1,2.9441994E1,4.63949E0,4.374007E1,4.324191E1,5.5093376E1,6.376867E2],"tree_param":{"num_deleted":"0","num_feature":"18","num_nodes":"125","size_leaf_vector":"1"}},{"base_weights":[-2.5779277E-3,-1.0134208E0,3.025106E-1,2.1822429E-1,-1.0387431E0,1.2955323E-1,1.0337493E0,-1.0597703E0,-3.8507473E-1,1.0570225E0,5.7217106E-2,1.0841867E0,9.615883E-1,2.070245E-1,-1.0646871E0,1.8122775E-2,-8.460021E-1,1.0456418E0,1.3463516E0,-4.6170148E-1,1.5469696E-1,1.1000705E0,8.318069E-1,6.1349213E-1,1.0322804E0,-1.083231E0,-8.844611E-1,2.529882E-1,-1.0144638E0,-8.992591E-1,1.6576605E-1,2.0950341E-1,2.0773575E-1,2.759873E-1,4.7149554E-2,-1.8241268E-1,-8.213211E-1,5.4511714E-1,1.9126356E-2,2.2027865E-1,3.782899E-1,3.2278562E-1,2.1895121E-1,8.394784E-1,1.458001E-1,9.579608E-1,1.1026647E0,-1.0847827E0,-6.6693956E-1,-9.410599E-1,2.4980415E-2,-1.4777076E-1,7.621118E-1,-2.2498803E-1,7.813086E-2,-9.261953E-1,1.0916431E-1,1.403177E-1,-6.634631E-2,-9.576606E-1,1.7588843E-1,-8.7167484E-1,7.8839797E-1,3.9094944E-2,7.5573325E-1,7.348182E-1,-4.313035E-2,1.4912803E-1,-7.6897666E-2,2.1583803E-1,-2.311862E-3,9.733328E-1,2.884059E-1,3.3876845E-1,-8.5031015E-1,2.5527552E-1,1.0532124E0,6.975445E-2,2.208147E-1,-2.1786511E-1,-1.9841233E-1,9.211065E-2,-1.5483542E-1,-1.3771895E-1,-2.1126576E-1,-1.9320695E-1,6.642541E-2,2.4515043E-1,-5.951373E-2,2.855302E-1,9.279157E-2,-1.9083996E-1,1.0091179E-1,-1.8147336E-1,-2.2504695E-1,8.7106735E-2,-9.3404345E-2,-1.7836364E-1,3.6184302E-1,-1.1363858E-1,2.5310788E-1,-8.4233396E-2,1.4237475E-1,1.8810128E-1,9.637835E-2,2.5785586E-1,1.17434315E-1,-2.3854284E-1,6.1226203E-3,-2.442369E-1,4.4333857E-2,3.632029E-2,2.0229593E-1,-1.1342227E-1,1.8395244E-1,2.295482E-1,-2.852333E-2,-2.9427571E-2,-1.8586072E-1,2.1846536E-1,-9.8760806E-2,1.4973953E-1,2.158952E-1],"categories":[],"categories_nodes":[],"categories_segments":[],"categories_sizes":[],"default_left":[0,0,0,0,0,0,0,0,0,0,0,0,0,0,0,0,0,0,0,0,0,0,0,0,0,0,0,0,0,0,0,0,0,0,0,0,0,0,0,0,0,0,0,0,0,0,0,0,0,0,0,0,0,0,0,0,0,0,0,0,0,0,0,0,0,0,0,0,0,0,0,0,0,0,0,0,0,0,0,0,0,0,0,0,0,0,0,0,0,0,0,0,0,0,0,0,0,0,0,0,0,0,0,0,0,0,0,0,0,0,0,0,0,0,0,0,0,0,0,0,0,0,0],"id":8,"left_children":[1,3,5,-1,7,9,11,13,15,17,19,21,23,-1,25,27,29,31,33,35,37,39,41,43,45,47,49,51,53,55,-1,-1,57,-1,-1,59,61,63,65,-1,67,69,-1,71,73,75,77,79,81,83,85,87,89,-1,-1,91,-1,-1,-1,93,95,97,99,101,103,105,107,-1,-1,-1,109,111,113,115,117,119,121,-1,-1,-1,-1,-1,-1,-1,-1,-1,-1,-1,-1,-1,-1,-1,-1,-1,-1,-1,-1,-1,-1,-1,-1,-1,-1,-1,-1,-1,-1,-1,-1,-1,-1,-1,-1,-1,-1,-1,-1,-1,-1,-1,-1,-1,-1],"loss_changes":[8.259823E3,3.3204736E2,2.6018828E3,0E0,8.393164E1,1.1162705E3,1.3279785E1,6.2331543E1,3.5847343E1,2.5561523E0,7.809186E2,8.339111E0,3.9423584E1,0E0,1.8862793E1,2.5435568E1,8.771553E0,1.6094971E0,1.2443314E0,2.45065E2,6.8786914E2,1.6538086E0,1.8489914E1,2.918E1,6.01355E0,2.7470703E0,2.878482E1,1.7534029E1,3.4569435E0,3.9188766E0,0E0,0E0,1.2568159E0,0E0,0E0,3.8224426E2,8.7170166E1,3.5696252E2,4.298923E2,0E0,1.8250742E0,1.2143231E1,0E0,1.3491882E1,1.7881826E1,4.4242798E1,3.451538E-1,1.1738281E0,3.0830803E0,1.4581421E1,1.0582084E1,1.0367146E1,6.8324356E0,0E0,0E0,3.9455338E0,0E0,0E0,0E0,2.6446228E0,1.5737772E2,5.750952E1,2.2007265E1,3.0546237E2,1.1921936E2,6.245157E1,7.5252686E2,0E0,0E0,0E0,9.970128E0,4.3406525E0,2.099825E1,3.0302082E1,7.0416546E-1,5.1143467E1,3.8729858E0,0E0,0E0,0E0,0E0,0E0,0E0,0E0,0E0,0E0,0E0,0E0,0E0,0E0,0E0,0E0,0E0,0E0,0E0,0E0,0E0,0E0,0E0,0E0,0E0,0E0,0E0,0E0,0E0,0E0,0E0,0E0,0E0,0E0,0E0,0E0,0E0,0E0,0E0,0E0,0E0,0E0,0E0,0E0,0E0,0E0,0E0],"parents":[2147483647,0,0,1,1,2,2,4,4,5,5,6,6,7,7,8,8,9,9,10,10,11,11,12,12,14,14,15,15,16,16,17,17,18,18,19,19,20,20,21,21,22,22,23,23,24,24,25,25,26,26,27,27,28,28,29,29,32,32,35,35,36,36,37,37,38,38,40,40,41,41,43,43,44,44,45,45,46,46,47,47,48,48,49,49,50,50,51,51,52,52,55,55,59,59,60,60,61,61,62,62,63,63,64,64,65,65,66,66,70,70,71,71,72,72,73,73,74,74,75,75,76,76],"right_children":[2,4,6,-1,8,10,12,14,16,18,20,22,24,-1,26,28,30,32,34,36,38,40,42,44,46,48,50,52,54,56,-1,-1,58,-1,-1,60,62,64,66,-1,68,70,-1,72,74,76,78,80,82,84,86,88,90,-1,-1,92,-1,-1,-1,94,96,98,100,102,104,106,108,-1,-1,-1,110,112,114,116,118,120,122,-1,-1,-1,-1,-1,-1,-1,-1,-1,-1,-1,-1,-1,-1,-1,-1,-1,-1,-1,-1,-1,-1,-1,-1,-1,-1,-1,-1,-1,-1,-1,-1,-1,-1,-1,-1,-1,-1,-1,-1,-1,-1,-1,-1,-1,-1],"split_conditions":[1E0,1E0,1E0,2.1822429E-1,3.7E1,1E0,2E0,2E0,1.8E1,5.9E1,2E0,7.8E1,1.4E1,2.070245E-1,3.6978E0,4E0,5.2E1,5.8E1,1.6E1,3.7E1,3.3E1,2E0,3.3842E0,8E0,1E0,3.6E1,4E0,1E0,6.1E1,1E0,1.6576605E-1,2.0950341E-1,4.3957E0,2.759873E-1,4.7149554E-2,2E0,1.9E1,2E0,3.0958E0,2.2027865E-1,4.284E0,3.0221E0,2.1895121E-1,4E0,3.5535E0,7E0,2.8454E0,3.2E1,3.8035E0,1.2E1,6E0,4E0,4.0049E0,-2.2498803E-1,7.813086E-2,3E0,1.0916431E-1,1.403177E-1,-6.634631E-2,4.1692E0,2E0,5.1028E0,6E0,3E0,2.9E1,5E0,1.2E1,1.4912803E-1,-7.6897666E-2,2.1583803E-1,3.0306E0,2.4226E0,2E0,2E0,4.1891E0,2E1,4E1,6.975445E-2,2.208147E-1,-2.1786511E-1,-1.9841233E-1,9.211065E-2,-1.5483542E-1,-1.3771895E-1,-2.1126576E-1,-1.9320695E-1,6.642541E-2,2.4515043E-1,-5.951373E-2,2.855302E-1,9.279157E-2,-1.9083996E-1,1.0091179E-1,-1.8147336E-1,-2.2504695E-1,8.7106735E-2,-9.3404345E-2,-1.7836364E-1,3.6184302E-1,-1.1363858E-1,2.5310788E-1,-8.4233396E-2,1.4237475E-1,1.8810128E-1,9.637835E-2,2.5785586E-1,1.17434315E-1,-2.3854284E-1,6.1226203E-3,-2.442369E-1,4.4333857E-2,3.632029E-2,2.0229593E-1,-1.1342227E-1,1.8395244E-1,2.295482E-1,-2.852333E-2,-2.9427571E-2,-1.8586072E-1,2.1846536E-1,-9.8760806E-2,1.4973953E-1,2.158952E-1],"split_indices":[2,9,9,0,0,15,15,3,17,2,3,0,1,0,11,4,0,0,3,2,0,5,11,17,14,0,7,7,0,14,0,0,12,0,0,6,1,6,13,0,13,11,0,4,11,17,11,0,12,17,17,16,11,0,0,7,0,0,0,12,7,13,6,3,0,2,2,0,0,0,11,11,3,3,12,1,0,0,0,0,0,0,0,0,0,0,0,0,0,0,0,0,0,0,0,0,0,0,0,0,0,0,0,0,0,0,0,0,0,0,0,0,0,0,0,0,0,0,0,0,0,0,0],"split_type":[0,0,0,0,0,0,0,0,0,0,0,0,0,0,0,0,0,0,0,0,0,0,0,0,0,0,0,0,0,0,0,0,0,0,0,0,0,0,0,0,0,0,0,0,0,0,0,0,0,0,0,0,0,0,0,0,0,0,0,0,0,0,0,0,0,0,0,0,0,0,0,0,0,0,0,0,0,0,0,0,0,0,0,0,0,0,0,0,0,0,0,0,0,0,0,0,0,0,0,0,0,0,0,0,0,0,0,0,0,0,0,0,0,0,0,0,0,0,0,0,0,0,0],"sum_hessian":[2.6781129E4,6.208459E3,2.057267E4,7.331295E1,6.135146E3,1.6638418E4,3.9342505E3,5.94334E3,1.9180615E2,1.2028082E3,1.543561E4,2.3074321E3,1.6268184E3,1.3426129E1,5.9299136E3,1.0282253E2,8.898362E1,1.1617261E3,4.1082146E1,2.4404617E3,1.2995148E4,2.1676494E3,1.3978261E2,2.762433E2,1.3505751E3,5.372151E3,5.5776263E2,8.438407E1,1.8438457E1,8.6690094E1,2.293532E0,1.1588822E3,2.843882E0,3.964089E1,1.4412557E0,1.3745005E3,1.0659612E3,3.348634E3,9.646515E3,2.1631592E3,4.490175E0,4.837161E1,9.1411E1,1.8571288E2,9.0530396E1,6.6402795E2,6.865471E2,5.350601E3,2.1550169E1,5.250515E2,3.271116E1,4.761414E1,3.676993E1,1.7279284E1,1.159173E0,8.545626E1,1.2338303E0,1.3278173E0,1.5160648E0,4.339342E2,9.4056635E2,1.0340728E3,3.1888397E1,9.8449396E2,2.3641401E3,7.7111475E2,8.8754E3,3.0458002E0,1.4443746E0,1.384315E1,3.452846E1,1.4880273E2,3.6910145E1,7.639158E1,1.4138812E1,7.970593E1,5.84322E2,1.7442248E0,6.848029E2,5.0904478E3,2.60153E2,1.5855051E0,1.9964664E1,1.667672E2,3.582843E2,7.2319446E0,2.5479214E1,3.975882E0,4.363826E1,1.0204082E1,2.6565851E1,8.41424E1,1.313859E0,3.3869626E2,9.5237946E1,6.7021594E2,2.7035037E2,1.0270233E3,7.049369E0,8.247783E0,2.3640615E1,5.847965E2,3.9969742E2,1.4101886E3,9.539515E2,1.6053221E2,6.105826E2,5.341037E2,8.341296E3,4.6688867E0,2.9859573E1,7.104773E0,1.4169797E2,1.5715996E1,2.119415E1,2.7982487E1,4.8409096E1,1.7170334E0,1.2421779E1,3.7426193E1,4.2279743E1,4.873764E1,5.355844E2],"tree_param":{"num_deleted":"0","num_feature":"18","num_nodes":"123","size_leaf_vector":"1"}},{"base_weights":[-2.7230538E-3,-9.829683E-1,2.6354015E-1,2.1355593E-1,-1.0074742E0,1.0968515E-1,1.0027264E0,-1.0393572E0,-4.9436763E-1,1.0197195E0,4.753382E-2,1.0597932E0,9.225877E-1,2.0022409E-1,-1.0442351E0,-8.264648E-3,-8.609196E-1,1.010468E0,1.2349502E0,1.1642972E-1,-5.7833433E-1,1.0782876E0,7.7916193E-1,5.5766803E-1,1.0016798E0,-1.0602399E0,-8.660351E-1,1.4419006E0,-1.857032E-1,-9.088756E-1,8.8833684E-1,1.0121049E0,2.7788454E-3,2.539821E-1,4.1768864E-2,1.1612294E0,8.1459984E-2,-6.9540733E-1,1.0104525E0,2.1597515E-1,3.3222124E-1,2.747602E-1,2.1482663E-1,7.871973E-1,1.2449924E-1,1.0658697E0,9.033502E-1,-2.1463005E-1,-1.015051E0,-9.084405E-1,3.1265533E-1,4.407506E-3,1.5947871E0,-2.4421804E-1,1.6466365E0,-9.8839074E-1,-4.5546505E-1,2.3510532E-1,4.377085E-2,2.0251806E-1,6.3885726E-2,1.1450881E0,3.5926148E-1,-2.2367162E-1,1.9710818E-1,-7.276357E-1,7.2656465E-1,4.3496174E-1,1.2031709E0,-6.50697E-2,1.6141076E-1,2.0776872E-1,-9.919443E-3,1.0238341E0,4.1287962E-1,-3.2088485E-2,1.1720674E0,1.0699302E0,-1.234157E-1,-3.1377405E-1,1.0722989E0,2.8799954E-1,-2.0414057E-1,-1.3526009E-1,-2.0840386E-1,-1.3054727E-1,2.5381854E-1,4.2673633E-1,2.2151947E-1,-7.811434E-2,1.2145602E-1,4.405527E-1,9.087996E-2,-1.737814E-2,-2.0015572E-1,1.9092707E-2,-1.4804217E-1,2.3000418E-1,-6.6372655E-2,-1.2512383E-1,2.2407448E-2,1.5254536E-1,2.279075E-2,-1.11692406E-1,-1.8384616E-1,-1.743603E-1,3.09964E-1,-6.0281444E-2,2.0307465E-1,3.709479E-2,2.4320154E-1,-7.014403E-2,1.3463645E-1,2.5195315E-2,2.17723E-1,-2.3483889E-1,1.654232E-1,9.384554E-2,-1.4174673E-1,-4.840837E-2,2.6834318E-1,2.1481238E-1,1.03924036E-1,-1.7055021E-1,1.2149022E-1,-1.496158E-1,2.2743173E-1,6.480341E-2,2.1494941E-1],"categories":[],"categories_nodes":[],"categories_segments":[],"categories_sizes":[],"default_left":[0,0,0,0,0,0,0,0,0,0,0,0,0,0,0,0,0,0,0,0,0,0,0,0,0,0,0,0,0,0,0,0,0,0,0,0,0,0,0,0,0,0,0,0,0,0,0,0,0,0,0,0,0,0,0,0,0,0,0,0,0,0,0,0,0,0,0,0,0,0,0,0,0,0,0,0,0,0,0,0,0,0,0,0,0,0,0,0,0,0,0,0,0,0,0,0,0,0,0,0,0,0,0,0,0,0,0,0,0,0,0,0,0,0,0,0,0,0,0,0,0,0,0,0,0,0,0,0,0],"id":9,"left_children":[1,3,5,-1,7,9,11,13,15,17,19,21,23,-1,25,27,29,31,33,35,37,39,41,43,45,47,49,51,53,55,57,59,-1,-1,-1,61,63,65,67,-1,69,71,-1,73,75,77,79,-1,81,83,85,-1,87,89,91,93,95,-1,-1,-1,-1,97,-1,99,101,103,105,107,109,-1,-1,-1,111,113,115,117,119,121,123,125,127,-1,-1,-1,-1,-1,-1,-1,-1,-1,-1,-1,-1,-1,-1,-1,-1,-1,-1,-1,-1,-1,-1,-1,-1,-1,-1,-1,-1,-1,-1,-1,-1,-1,-1,-1,-1,-1,-1,-1,-1,-1,-1,-1,-1,-1,-1,-1,-1],"loss_changes":[6.3877725E3,2.6380127E2,2.1887036E3,0E0,8.40083E1,9.0103394E2,1.4185059E1,4.94541E1,5.4189156E1,7.800293E-1,6.4315704E2,9.17627E0,3.9466675E1,0E0,1.292041E1,3.417356E1,1.5353027E1,1.5877686E0,1.0789909E0,4.9080554E2,2.7582318E2,1.7832031E0,1.7994148E1,2.4686844E1,6.2229004E0,1.5053711E0,2.0544464E1,3.1079636E0,1.3084902E1,5.652237E0,7.2955036E-1,6.164551E-3,0E0,0E0,0E0,2.402954E0,4.588529E2,6.3688232E1,1.0780243E1,0E0,1.9126022E0,1.0169192E1,0E0,1.3993599E1,1.4395411E1,3.4316406E0,9.415048E1,0E0,1.544043E1,1.1436157E1,1.4512784E1,0E0,1.0649414E0,1.463061E1,1.5117941E0,1.511734E0,4.3234434E0,0E0,0E0,0E0,0E0,3.4927979E0,0E0,4.8232733E2,4.4339056E2,4.31839E1,4.220107E1,1.1903153E1,7.645035E-1,0E0,0E0,0E0,8.38803E0,5.623413E0,4.351583E1,2.649248E1,3.0617275E0,9.902954E-1,2.2352097E0,3.6380184E1,3.8607788E-1,0E0,0E0,0E0,0E0,0E0,0E0,0E0,0E0,0E0,0E0,0E0,0E0,0E0,0E0,0E0,0E0,0E0,0E0,0E0,0E0,0E0,0E0,0E0,0E0,0E0,0E0,0E0,0E0,0E0,0E0,0E0,0E0,0E0,0E0,0E0,0E0,0E0,0E0,0E0,0E0,0E0,0E0,0E0,0E0,0E0,0E0,0E0,0E0],"parents":[2147483647,0,0,1,1,2,2,4,4,5,5,6,6,7,7,8,8,9,9,10,10,11,11,12,12,14,14,15,15,16,16,17,17,18,18,19,19,20,20,21,21,22,22,23,23,24,24,25,25,26,26,27,27,28,28,29,29,30,30,31,31,35,35,36,36,37,37,38,38,40,40,41,41,43,43,44,44,45,45,46,46,48,48,49,49,50,50,52,52,53,53,54,54,55,55,56,56,61,61,63,63,64,64,65,65,66,66,67,67,68,68,72,72,73,73,74,74,75,75,76,76,77,77,78,78,79,79,80,80],"right_children":[2,4,6,-1,8,10,12,14,16,18,20,22,24,-1,26,28,30,32,34,36,38,40,42,44,46,48,50,52,54,56,58,60,-1,-1,-1,62,64,66,68,-1,70,72,-1,74,76,78,80,-1,82,84,86,-1,88,90,92,94,96,-1,-1,-1,-1,98,-1,100,102,104,106,108,110,-1,-1,-1,112,114,116,118,120,122,124,126,128,-1,-1,-1,-1,-1,-1,-1,-1,-1,-1,-1,-1,-1,-1,-1,-1,-1,-1,-1,-1,-1,-1,-1,-1,-1,-1,-1,-1,-1,-1,-1,-1,-1,-1,-1,-1,-1,-1,-1,-1,-1,-1,-1,-1,-1,-1,-1,-1],"split_conditions":[1E0,1E0,1E0,2.1355593E-1,3.5E1,1E0,2E0,2E0,1.6E1,5.9E1,3E0,7.8E1,1.4E1,2.0022409E-1,3.6978E0,4E0,5.2E1,5.8E1,1.6E1,1.5E0,3.9354E0,2E0,1.8E1,8E0,3.5216E0,3.4842E0,5E0,1.1E1,1E0,4E1,2E0,5.8E1,2.7788454E-3,2.539821E-1,4.1768864E-2,4.6607E0,2E0,1E1,3.6E1,2.1597515E-1,3E0,3.0221E0,2.1482663E-1,8.3E1,4.618E0,6E0,3.5535E0,-2.1463005E-1,3E0,1.2E1,7E0,4.407506E-3,1.3E1,6E0,3.8231E0,3.749E0,2.4E1,2.3510532E-1,4.377085E-2,2.0251806E-1,6.3885726E-2,2.5E1,3.5926148E-1,3E0,2.8E1,8.3E1,3.0221E0,4.5165E0,4.2165E0,-6.50697E-2,1.6141076E-1,2.0776872E-1,3E0,2.4226E0,2E0,3E0,3.5069E0,8E0,4.4339E0,1E0,3.5585E0,2.8799954E-1,-2.0414057E-1,-1.3526009E-1,-2.0840386E-1,-1.3054727E-1,2.5381854E-1,4.2673633E-1,2.2151947E-1,-7.811434E-2,1.2145602E-1,4.405527E-1,9.087996E-2,-1.737814E-2,-2.0015572E-1,1.9092707E-2,-1.4804217E-1,2.3000418E-1,-6.6372655E-2,-1.2512383E-1,2.2407448E-2,1.5254536E-1,2.279075E-2,-1.11692406E-1,-1.8384616E-1,-1.743603E-1,3.09964E-1,-6.0281444E-2,2.0307465E-1,3.709479E-2,2.4320154E-1,-7.014403E-2,1.3463645E-1,2.5195315E-2,2.17723E-1,-2.3483889E-1,1.654232E-1,9.384554E-2,-1.4174673E-1,-4.840837E-2,2.6834318E-1,2.1481238E-1,1.03924036E-1,-1.7055021E-1,1.2149022E-1,-1.496158E-1,2.2743173E-1,6.480341E-2,2.1494941E-1],"split_indices":[2,9,9,0,0,15,15,3,17,2,4,0,1,0,11,16,0,2,3,13,11,5,1,17,11,11,7,17,14,0,4,0,0,0,0,12,15,6,1,0,16,11,0,0,12,5,11,0,16,17,17,0,17,7,11,12,17,0,0,0,0,7,0,3,0,0,11,12,12,0,0,0,3,11,3,7,13,4,13,14,11,0,0,0,0,0,0,0,0,0,0,0,0,0,0,0,0,0,0,0,0,0,0,0,0,0,0,0,0,0,0,0,0,0,0,0,0,0,0,0,0,0,0,0,0,0,0,0,0],"split_type":[0,0,0,0,0,0,0,0,0,0,0,0,0,0,0,0,0,0,0,0,0,0,0,0,0,0,0,0,0,0,0,0,0,0,0,0,0,0,0,0,0,0,0,0,0,0,0,0,0,0,0,0,0,0,0,0,0,0,0,0,0,0,0,0,0,0,0,0,0,0,0,0,0,0,0,0,0,0,0,0,0,0,0,0,0,0,0,0,0,0,0,0,0,0,0,0,0,0,0,0,0,0,0,0,0,0,0,0,0,0,0,0,0,0,0,0,0,0,0,0,0,0,0,0,0,0,0,0,0],"sum_hessian":[2.447193E4,5.2268057E3,1.9245123E4,6.1218674E1,5.165587E3,1.5930484E4,3.3146387E3,4.8624243E3,3.031624E2,1.01744275E3,1.4913042E4,1.9288685E3,1.3857703E3,1.1109442E1,4.851315E3,1.3076755E2,1.7239487E2,9.8097144E2,3.6471363E1,1.3434932E4,1.4781105E3,1.8069435E3,1.21925E2,2.482822E2,1.137488E3,4.4469673E3,4.0434772E2,1.3479167E1,1.17288376E2,1.6826236E2,4.1325064E0,9.793472E2,1.6241704E0,3.5039925E1,1.4314382E0,4.3406464E2,1.3000866E4,1.3771915E3,1.0091886E2,1.8026589E3,4.2845635E0,4.5703453E1,7.622155E1,1.6175403E2,8.6528175E1,6.8226416E2,4.5522388E2,3.4411057E3,1.00586176E3,3.9052713E2,1.3820598E1,1.4215276E0,1.2057639E1,1.1449864E2,2.789737E0,1.4215292E2,2.6109432E1,2.3629794E0,1.7695271E0,9.7819995E2,1.1472946E0,4.2603934E2,8.025287E0,3.5729348E3,9.427932E3,1.3471473E3,3.0044209E1,2.6134285E1,7.478458E1,1.9285853E0,2.355978E0,1.1686794E1,3.401666E1,9.803984E1,6.371418E1,7.6119415E1,1.0408761E1,6.8004266E2,2.2214892E0,5.5382854E1,3.9984103E2,1.727394E0,1.0041344E3,1.4485446E2,2.4567267E2,7.0361295E0,6.7844687E0,4.1203895E0,7.9372497E0,9.816719E1,1.6331453E1,1.3243809E0,1.465356E0,2.0355241E0,1.401174E2,9.122971E0,1.6986462E1,4.248418E2,1.1975402E0,1.6256566E3,1.9472782E3,1.2073478E3,8.220584E3,7.175148E2,6.2963257E2,1.0193793E1,1.9850416E1,1.1731374E1,1.4402912E1,1.1239797E0,7.36606E1,2.3019009E1,1.0997649E1,6.7957683E0,9.124407E1,1.2807994E1,5.0906185E1,4.3900635E1,3.2218784E1,1.0692525E0,9.339509E0,6.7403046E2,6.012187E0,1.0284387E0,1.1930505E0,4.2997044E1,1.2385809E1,1.7387695E0,3.9810226E2],"tree_param":{"num_deleted":"0","num_feature":"18","num_nodes":"129","size_leaf_vector":"1"}},{"base_weights":[-2.5348684E-3,-9.5491385E-1,2.274648E-1,2.0965393E-1,-9.786626E-1,9.2153355E-2,9.754347E-1,-1.0210541E0,-5.0682557E-1,9.850367E-1,3.9334327E-2,1.0393704E0,8.8738495E-1,1.9409122E-1,-1.0259627E0,-4.7800936E-2,-8.7508446E-1,9.8614466E-1,3.7017547E-2,1.6699304E-1,-2.3648918E-1,1.0607353E0,7.3156875E-1,5.059482E-1,9.7625244E-1,-1.0478016E0,-8.9747864E-1,1.1971049E0,-2.2363846E-1,-9.841291E-1,-2.1056283E-1,9.774006E-1,2.3683818E-1,2.6634663E-1,-2.900787E-1,-3.5351676E-1,4.443037E-1,2.1251832E-1,3.0133712E-1,2.4400148E-1,2.1092837E-1,6.8105614E-1,-4.922188E-2,8.897157E-1,1.0606929E0,-1.0508024E0,-9.101098E-1,1.1318473E0,-9.104342E-1,-6.975111E-2,1.3097448E0,-2.870257E-1,1.7688313E0,-9.9516404E-1,-3.398371E-1,3.1549212E-1,-5.926492E-1,9.792782E-1,2.4377133E-3,-9.555843E-2,3.490458E-1,-6.183824E-1,1.2603197E-1,-4.0729594E-1,1.01485E0,-1.3131342E0,7.909029E-1,-5.5512875E-2,1.5241146E-1,2.0432459E-1,-7.3189465E-3,4.2798594E-1,9.0443546E-1,-3.0507943E-1,9.5466876E-1,2.0493646E-1,9.945603E-1,4.301716E-2,2.1253975E-1,-2.1021874E-1,-7.041861E-2,-1.3805601E-2,-1.8853918E-1,3.0094022E-1,6.892627E-2,-1.2957363E-1,-1.9599661E-1,3.5516825E-1,1.5320891E-1,7.474645E-2,-9.5153354E-2,5.498712E-1,1.3499607E-1,-1.4866724E-2,-2.0010889E-1,1.11427024E-1,-1.705804E-1,4.265979E-1,-7.944782E-2,-1.5352736E-1,9.449669E-3,1.9613706E-1,9.164368E-2,-8.9956656E-2,1.00597374E-1,2.207146E-1,6.2105488E-2,-1.3607703E-1,2.0268427E-1,1.0934031E-1,-1.3484763E-1,-1.6039167E-1,-6.064064E-2,1.3182318E-1,2.4436548E-1,-1.3813926E-1,-3.851425E-1,2.0306559E-1,-1.9026498E-1,-1.4317982E-1,6.053033E-2,1.2552094E-1,-7.571656E-2,2.0077053E-1,4.393807E-2,2.0353332E-1,-9.624429E-2,2.2591014E-1,5.581016E-2,1.943329E-1,-1.0772107E-1,1.2177505E-1,2.0630991E-1],"categories":[],"categories_nodes":[],"categories_segments":[],"categories_sizes":[],"default_left":[0,0,0,0,0,0,0,0,0,0,0,0,0,0,0,0,0,0,0,0,0,0,0,0,0,0,0,0,0,0,0,0,0,0,0,0,0,0,0,0,0,0,0,0,0,0,0,0,0,0,0,0,0,0,0,0,0,0,0,0,0,0,0,0,0,0,0,0,0,0,0,0,0,0,0,0,0,0,0,0,0,0,0,0,0,0,0,0,0,0,0,0,0,0,0,0,0,0,0,0,0,0,0,0,0,0,0,0,0,0,0,0,0,0,0,0,0,0,0,0,0,0,0,0,0,0,0,0,0,0,0,0,0],"id":10,"left_children":[1,3,5,-1,7,9,11,13,15,17,19,21,23,-1,25,27,29,31,-1,33,35,37,39,41,43,45,47,49,51,53,55,57,-1,59,61,63,65,-1,67,69,-1,71,73,75,77,79,81,83,85,-1,87,89,91,93,95,97,99,101,-1,103,105,107,109,111,113,115,117,-1,-1,-1,119,121,123,125,127,129,131,-1,-1,-1,-1,-1,-1,-1,-1,-1,-1,-1,-1,-1,-1,-1,-1,-1,-1,-1,-1,-1,-1,-1,-1,-1,-1,-1,-1,-1,-1,-1,-1,-1,-1,-1,-1,-1,-1,-1,-1,-1,-1,-1,-1,-1,-1,-1,-1,-1,-1,-1,-1,-1,-1,-1,-1],"loss_changes":[4.9488403E3,2.1009863E2,1.841693E3,0E0,8.63667E1,7.2677167E2,1.4770996E1,3.994922E1,6.08254E1,5.8032227E-1,5.1241583E2,9.806152E0,3.9488647E1,0E0,1.0213867E1,3.5585876E1,1.4265945E1,3.305664E-1,0E0,4.518372E2,3.6699625E2,1.7977295E0,1.6702072E1,2.1902454E1,6.0388794E0,4.4506836E-1,1.6398071E1,3.9612236E0,1.8469301E1,8.797455E-1,6.1018167E0,1.4898071E0,0E0,2.4462457E2,2.428049E2,2.8958813E2,4.1270728E2,0E0,1.5609279E0,8.647522E0,0E0,9.284294E0,1.4385519E1,3.4123627E1,5.828247E-1,3.0444336E-1,2.122383E0,7.0063114E-1,9.981415E0,0E0,3.4467697E0,1.747445E1,2.9970036E0,7.5746155E-1,2.501549E0,1.7730959E1,1.9839039E0,1.5704346E-1,0E0,3.2268402E2,1.9299774E2,1.011929E2,2.6444672E2,1.5511371E2,1.0156876E1,4.1262695E1,2.219307E2,0E0,0E0,0E0,7.773237E0,1.3457607E1,5.904442E0,1.08545475E1,1.0302086E0,3.7433796E1,5.2836E0,0E0,0E0,0E0,0E0,0E0,0E0,0E0,0E0,0E0,0E0,0E0,0E0,0E0,0E0,0E0,0E0,0E0,0E0,0E0,0E0,0E0,0E0,0E0,0E0,0E0,0E0,0E0,0E0,0E0,0E0,0E0,0E0,0E0,0E0,0E0,0E0,0E0,0E0,0E0,0E0,0E0,0E0,0E0,0E0,0E0,0E0,0E0,0E0,0E0,0E0,0E0,0E0,0E0,0E0,0E0,0E0],"parents":[2147483647,0,0,1,1,2,2,4,4,5,5,6,6,7,7,8,8,9,9,10,10,11,11,12,12,14,14,15,15,16,16,17,17,19,19,20,20,21,21,22,22,23,23,24,24,25,25,26,26,27,27,28,28,29,29,30,30,31,31,33,33,34,34,35,35,36,36,38,38,39,39,41,41,42,42,43,43,44,44,45,45,46,46,47,47,48,48,50,50,51,51,52,52,53,53,54,54,55,55,56,56,57,57,59,59,60,60,61,61,62,62,63,63,64,64,65,65,66,66,70,70,71,71,72,72,73,73,74,74,75,75,76,76],"right_children":[2,4,6,-1,8,10,12,14,16,18,20,22,24,-1,26,28,30,32,-1,34,36,38,40,42,44,46,48,50,52,54,56,58,-1,60,62,64,66,-1,68,70,-1,72,74,76,78,80,82,84,86,-1,88,90,92,94,96,98,100,102,-1,104,106,108,110,112,114,116,118,-1,-1,-1,120,122,124,126,128,130,132,-1,-1,-1,-1,-1,-1,-1,-1,-1,-1,-1,-1,-1,-1,-1,-1,-1,-1,-1,-1,-1,-1,-1,-1,-1,-1,-1,-1,-1,-1,-1,-1,-1,-1,-1,-1,-1,-1,-1,-1,-1,-1,-1,-1,-1,-1,-1,-1,-1,-1,-1,-1,-1,-1,-1,-1],"split_conditions":[1E0,1E0,1E0,2.0965393E-1,3.4E1,1E0,2E0,2E0,1.6E1,1.6E1,1E0,7.8E1,1.4E1,1.9409122E-1,3.6133E0,4E0,4E1,5.9E1,3.7017547E-2,1E0,7E0,2E0,1.8E1,3.3232E0,1E0,3.2E1,3E0,3.9528E0,1E0,1E0,2.4E1,5.8E1,2.3683818E-1,2E0,3E0,3.9536E0,7E0,2.1251832E-1,3E0,6E0,2.1092837E-1,3.027E0,4.5645E0,7E0,2.8454E0,4.1385E0,3.6978E0,6E0,9E0,-6.975111E-2,3E0,8E0,3.7144E0,3.6819E0,4.1163E0,4E0,4.7E1,5.6E1,2.4377133E-3,3E0,1.5E0,1E0,1E0,2E0,3.6E1,1E0,6E0,-5.5512875E-2,1.5241146E-1,2.0432459E-1,4.872E0,3.0062E0,5E0,1.3E1,4.9389E0,3.9267E0,4E1,4.301716E-2,2.1253975E-1,-2.1021874E-1,-7.041861E-2,-1.3805601E-2,-1.8853918E-1,3.0094022E-1,6.892627E-2,-1.2957363E-1,-1.9599661E-1,3.5516825E-1,1.5320891E-1,7.474645E-2,-9.5153354E-2,5.498712E-1,1.3499607E-1,-1.4866724E-2,-2.0010889E-1,1.11427024E-1,-1.705804E-1,4.265979E-1,-7.944782E-2,-1.5352736E-1,9.449669E-3,1.9613706E-1,9.164368E-2,-8.9956656E-2,1.00597374E-1,2.207146E-1,6.2105488E-2,-1.3607703E-1,2.0268427E-1,1.0934031E-1,-1.3484763E-1,-1.6039167E-1,-6.064064E-2,1.3182318E-1,2.4436548E-1,-1.3813926E-1,-3.851425E-1,2.0306559E-1,-1.9026498E-1,-1.4317982E-1,6.053033E-2,1.2552094E-1,-7.571656E-2,2.0077053E-1,4.393807E-2,2.0353332E-1,-9.624429E-2,2.2591014E-1,5.581016E-2,1.943329E-1,-1.0772107E-1,1.2177505E-1,2.0630991E-1],"split_indices":[2,9,9,0,0,15,15,3,17,3,4,0,1,0,11,16,0,2,0,5,6,5,1,11,14,0,16,12,14,7,17,2,0,6,3,11,1,0,16,17,0,11,12,17,11,12,12,7,17,0,7,17,11,12,12,16,0,0,0,3,13,8,16,3,1,14,4,0,0,0,12,11,4,2,12,13,0,0,0,0,0,0,0,0,0,0,0,0,0,0,0,0,0,0,0,0,0,0,0,0,0,0,0,0,0,0,0,0,0,0,0,0,0,0,0,0,0,0,0,0,0,0,0,0,0,0,0,0,0,0,0,0,0],"split_type":[0,0,0,0,0,0,0,0,0,0,0,0,0,0,0,0,0,0,0,0,0,0,0,0,0,0,0,0,0,0,0,0,0,0,0,0,0,0,0,0,0,0,0,0,0,0,0,0,0,0,0,0,0,0,0,0,0,0,0,0,0,0,0,0,0,0,0,0,0,0,0,0,0,0,0,0,0,0,0,0,0,0,0,0,0,0,0,0,0,0,0,0,0,0,0,0,0,0,0,0,0,0,0,0,0,0,0,0,0,0,0,0,0,0,0,0,0,0,0,0,0,0,0,0,0,0,0,0,0,0,0,0,0],"sum_hessian":[2.2590617E4,4.393778E3,1.819684E4,5.0974625E1,4.342803E3,1.5410185E4,2.786655E3,3.9837273E3,3.590762E2,8.596983E2,1.4550486E4,1.6081345E3,1.1785205E3,9.311257E0,3.974416E3,1.6034293E2,1.9873328E2,8.5827673E2,1.4215795E0,9.947093E3,4.6033936E3,1.5014692E3,1.06665215E2,2.2395496E2,9.545655E2,3.3908992E3,5.835168E2,1.9125929E1,1.4121701E2,1.7030597E2,2.8427298E1,8.2766895E2,3.0607807E1,8.171313E3,1.7757792E3,3.928559E3,6.748345E2,1.4974098E3,4.0594277E0,4.320995E1,6.3455265E1,1.7008206E2,5.3872894E1,4.7712857E2,4.7743692E2,3.3120872E3,7.881199E1,3.1537664E0,5.80363E2,1.156603E0,1.7969324E1,1.3769249E2,3.524521E0,1.6690279E2,3.403184E0,1.2033674E1,1.6393621E1,8.260475E2,1.6214409E0,1.5198867E3,6.6514263E3,9.923483E2,7.8343085E2,3.7806746E3,1.4788466E2,1.1070648E2,5.64128E2,1.975157E0,2.0842707E0,9.805453E0,3.34045E1,8.110865E1,8.897341E1,4.348592E1,1.0386977E1,6.3744465E1,4.1338412E2,1.3859125E0,4.7605103E2,3.3102026E3,1.8845834E0,3.0558379E0,7.575615E1,1.5216415E0,1.6321248E0,1.2369518E2,4.5666782E2,8.454956E0,9.514369E0,3.0374655E1,1.0731783E2,1.0604614E0,2.4640596E0,1.0555964E0,1.658472E2,1.2070491E0,2.196135E0,2.8284075E0,9.205267E0,1.2716516E1,3.6771061E0,8.229431E2,3.1043825E0,9.54973E2,5.649137E2,3.2171802E2,6.3297085E3,9.5658453E2,3.576378E1,5.1371075E2,2.697201E2,7.8764685E2,2.9930276E3,5.5934296E1,9.195037E1,5.59666E1,5.4739883E1,5.0012198E2,6.400598E1,9.767293E0,2.3637203E1,6.519527E1,1.5913382E1,7.72863E1,1.1687111E1,4.54882E0,3.89371E1,7.717456E0,2.6695216E0,3.1231869E1,3.2512592E1,3.7704376E1,3.7567975E2],"tree_param":{"num_deleted":"0","num_feature":"18","num_nodes":"133","size_leaf_vector":"1"}},{"base_weights":[-2.294143E-3,-9.274521E-1,1.9695584E-1,2.0629294E-1,-9.504436E-1,7.801741E-2,9.47806E-1,-9.992158E-1,-4.524114E-1,9.514671E-1,3.2910593E-2,1.0213647E0,8.491683E-1,1.8833967E-1,-1.0040956E0,-3.514711E-2,-8.311759E-1,1.9055443E-1,3.281628E-2,-3.6951414E-1,1.0387337E-1,1.0462998E0,6.826793E-1,4.5354092E-1,9.4946045E-1,-1.030453E0,-8.537168E-1,9.745317E-1,-1.8272536E-1,-8.81043E-1,7.041749E-1,-5.320007E-1,2.0434512E-1,4.306665E-1,3.855772E-3,2.096956E-1,2.7477217E-1,1.9522138E-1,2.0711374E-1,7.255424E-1,1.2885007E-1,1.0271798E0,8.333876E-1,-1.0340486E0,-8.704097E-1,9.914265E-1,-8.674429E-1,-6.3230686E-2,1.0674856E0,-2.4031569E-1,1.4063901E0,-9.5019317E-1,-4.0095404E-1,2.4467248E-1,2.2480865E-1,-2.8411445E-1,-9.323863E-1,7.729436E-1,-7.155976E-1,1.9864114E-1,6.49422E-1,-1.7631353E-1,2.2272189E-1,1.3227235E-1,-8.5509405E-2,1.9544624E-1,-4.7930036E-2,3.9276516E-1,9.584142E-1,7.5063956E-1,-1.507248E-1,1.032964E0,-5.374526E-2,-3.206389E-1,2.0744255E-1,-2.0701323E-1,-1.2987606E-1,-7.130418E-2,-1.8851481E-1,5.604847E-2,2.6786432E-1,-1.8936633E-1,-1.1533155E-1,2.8598183E-1,1.3317668E-1,-9.801314E-2,2.2704592E-2,4.0177032E-1,9.915825E-2,-1.3675964E-1,-1.9870007E-1,-1.0961391E-2,-1.9909532E-1,1.1017962E-1,-7.031921E-2,-1.598749E-1,-2.031992E-2,-1.87979E-1,3.603381E-1,1.161583E-1,3.292177E-1,-1.913337E-1,1.4924589E-1,2.1322556E-1,4.8944564E-3,1.4231087E-1,-1.5395361E-1,-1.0479476E-1,9.782518E-3,9.707776E-2,-1.9070056E-3,-9.974424E-2,9.2051096E-2,1.6518562E-1,-1.3405745E-1,1.9430354E-1,1.695103E-2,1.715251E-1,-1.9916421E-1,-7.453164E-2,1.1160626E-1,2.0777524E-1,7.214017E-2,2.147148E-1,-1.4931683E-1],"categories":[],"categories_nodes":[],"categories_segments":[],"categories_sizes":[],"default_left":[0,0,0,0,0,0,0,0,0,0,0,0,0,0,0,0,0,0,0,0,0,0,0,0,0,0,0,0,0,0,0,0,0,0,0,0,0,0,0,0,0,0,0,0,0,0,0,0,0,0,0,0,0,0,0,0,0,0,0,0,0,0,0,0,0,0,0,0,0,0,0,0,0,0,0,0,0,0,0,0,0,0,0,0,0,0,0,0,0,0,0,0,0,0,0,0,0,0,0,0,0,0,0,0,0,0,0,0,0,0,0,0,0,0,0,0,0,0,0,0,0,0,0,0,0],"id":11,"left_children":[1,3,5,-1,7,9,11,13,15,17,19,21,23,-1,25,27,29,-1,-1,31,33,35,37,39,41,43,45,47,49,51,53,55,57,59,61,-1,63,65,-1,67,69,71,73,75,77,79,81,-1,83,85,87,89,91,93,-1,95,97,99,101,103,105,107,109,-1,-1,-1,111,113,115,117,119,121,-1,123,-1,-1,-1,-1,-1,-1,-1,-1,-1,-1,-1,-1,-1,-1,-1,-1,-1,-1,-1,-1,-1,-1,-1,-1,-1,-1,-1,-1,-1,-1,-1,-1,-1,-1,-1,-1,-1,-1,-1,-1,-1,-1,-1,-1,-1,-1,-1,-1,-1,-1,-1],"loss_changes":[3.845082E3,1.6745605E2,1.532633E3,0E0,8.8302E1,5.8373E2,1.6160156E1,3.2458008E1,5.1768295E1,5.913086E-1,4.024166E2,1.0596924E1,3.9582336E1,0E0,1.2276611E1,2.357036E1,1.3770256E1,0E0,0E0,1.970791E2,3.9152795E2,1.8051758E0,1.6092117E1,1.808688E1,6.3931274E0,7.2265625E-1,1.3545044E1,2.7582912E0,1.2950081E1,5.1562347E0,8.7458396E-1,1.6315521E2,2.4475714E2,1.4234949E2,3.6174884E2,0E0,1.6028224E0,7.844756E0,0E0,8.287476E0,1.6637135E1,3.8531494E0,7.7383835E1,4.050293E-1,2.195694E0,6.5516853E-1,1.0943176E1,0E0,1.8206673E0,1.1883673E1,1.728157E0,9.9420166E-1,4.6229877E0,9.465746E-1,0E0,9.5689926E1,1.4609863E1,4.753267E1,6.374205E1,2.0600883E2,1.27913025E2,3.940198E2,2.5269598E2,0E0,0E0,0E0,7.614418E0,2.2528097E1,6.6267395E-1,6.394083E0,1.0653156E1,1.5135193E0,0E0,3.0455917E1,0E0,0E0,0E0,0E0,0E0,0E0,0E0,0E0,0E0,0E0,0E0,0E0,0E0,0E0,0E0,0E0,0E0,0E0,0E0,0E0,0E0,0E0,0E0,0E0,0E0,0E0,0E0,0E0,0E0,0E0,0E0,0E0,0E0,0E0,0E0,0E0,0E0,0E0,0E0,0E0,0E0,0E0,0E0,0E0,0E0,0E0,0E0,0E0,0E0,0E0,0E0],"parents":[2147483647,0,0,1,1,2,2,4,4,5,5,6,6,7,7,8,8,9,9,10,10,11,11,12,12,14,14,15,15,16,16,19,19,20,20,21,21,22,22,23,23,24,24,25,25,26,26,27,27,28,28,29,29,30,30,31,31,32,32,33,33,34,34,36,36,37,37,39,39,40,40,41,41,42,42,43,43,44,44,45,45,46,46,48,48,49,49,50,50,51,51,52,52,53,53,55,55,56,56,57,57,58,58,59,59,60,60,61,61,62,62,66,66,67,67,68,68,69,69,70,70,71,71,73,73],"right_children":[2,4,6,-1,8,10,12,14,16,18,20,22,24,-1,26,28,30,-1,-1,32,34,36,38,40,42,44,46,48,50,52,54,56,58,60,62,-1,64,66,-1,68,70,72,74,76,78,80,82,-1,84,86,88,90,92,94,-1,96,98,100,102,104,106,108,110,-1,-1,-1,112,114,116,118,120,122,-1,124,-1,-1,-1,-1,-1,-1,-1,-1,-1,-1,-1,-1,-1,-1,-1,-1,-1,-1,-1,-1,-1,-1,-1,-1,-1,-1,-1,-1,-1,-1,-1,-1,-1,-1,-1,-1,-1,-1,-1,-1,-1,-1,-1,-1,-1,-1,-1,-1,-1,-1,-1],"split_conditions":[1E0,1E0,1E0,2.0629294E-1,3.4E1,1E0,2E0,2E0,1.6E1,1.6E1,2E0,7.8E1,1.4E1,1.8833967E-1,3.6133E0,4E0,5.1E1,1.9055443E-1,3.281628E-2,2E0,3.3E1,2E0,3.3842E0,7E0,3.5216E0,3.2E1,3E0,3.9528E0,1E0,4E1,3E0,2E0,8.3E1,2E0,3E0,2.096956E-1,4.284E0,3.0221E0,2.0711374E-1,2.9528E0,4.2225E0,6E0,3.5585E0,7E0,1.3E1,8E0,1E0,-6.3230686E-2,2E0,1E0,1E1,1.8E1,4E0,5.5E1,2.2480865E-1,2E0,5.4554E0,5E0,4.7508E0,1.5E0,5E0,3E0,2E0,1.3227235E-1,-8.5509405E-2,1.9544624E-1,1.13E2,8.2E1,5.6498E0,8.2E1,9E0,8E0,-5.374526E-2,2E0,2.0744255E-1,-2.0701323E-1,-1.2987606E-1,-7.130418E-2,-1.8851481E-1,5.604847E-2,2.6786432E-1,-1.8936633E-1,-1.1533155E-1,2.8598183E-1,1.3317668E-1,-9.801314E-2,2.2704592E-2,4.0177032E-1,9.915825E-2,-1.3675964E-1,-1.9870007E-1,-1.0961391E-2,-1.9909532E-1,1.1017962E-1,-7.031921E-2,-1.598749E-1,-2.031992E-2,-1.87979E-1,3.603381E-1,1.161583E-1,3.292177E-1,-1.913337E-1,1.4924589E-1,2.1322556E-1,4.8944564E-3,1.4231087E-1,-1.5395361E-1,-1.0479476E-1,9.782518E-3,9.707776E-2,-1.9070056E-3,-9.974424E-2,9.2051096E-2,1.6518562E-1,-1.3405745E-1,1.9430354E-1,1.695103E-2,1.715251E-1,-1.9916421E-1,-7.453164E-2,1.1160626E-1,2.0777524E-1,7.214017E-2,2.147148E-1,-1.4931683E-1],"split_indices":[2,9,9,0,0,15,15,3,17,3,3,0,1,0,11,16,0,0,0,16,0,5,11,17,11,0,16,12,14,0,3,7,0,15,15,0,13,11,0,11,12,5,11,7,17,17,4,0,7,7,17,17,16,0,0,6,12,7,12,13,7,3,7,0,0,0,0,0,12,0,17,4,0,7,0,0,0,0,0,0,0,0,0,0,0,0,0,0,0,0,0,0,0,0,0,0,0,0,0,0,0,0,0,0,0,0,0,0,0,0,0,0,0,0,0,0,0,0,0,0,0,0,0,0,0],"split_type":[0,0,0,0,0,0,0,0,0,0,0,0,0,0,0,0,0,0,0,0,0,0,0,0,0,0,0,0,0,0,0,0,0,0,0,0,0,0,0,0,0,0,0,0,0,0,0,0,0,0,0,0,0,0,0,0,0,0,0,0,0,0,0,0,0,0,0,0,0,0,0,0,0,0,0,0,0,0,0,0,0,0,0,0,0,0,0,0,0,0,0,0,0,0,0,0,0,0,0,0,0,0,0,0,0,0,0,0,0,0,0,0,0,0,0,0,0,0,0,0,0,0,0,0,0],"sum_hessian":[2.0856912E4,3.6952878E3,1.7161623E4,4.2359127E1,3.6529287E3,1.4815826E4,2.3457974E3,3.3261895E3,3.2673923E2,7.265622E2,1.4089264E4,1.3383634E3,1.0074339E3,7.860136E0,3.3183293E3,1.5598824E2,1.7075099E2,7.2515027E2,1.4119548E0,2.1114092E3,1.19778545E4,1.2446394E3,9.372391E1,2.0485497E2,8.02579E2,2.818473E3,4.998566E2,1.917769E1,1.3681055E2,1.6579233E2,4.9586544E0,1.6455496E3,4.658596E2,2.8060813E3,9.171773E3,1.2407776E3,3.8619306E0,4.0009987E1,5.3713917E1,1.1080028E2,9.405468E1,4.7600745E2,3.2657153E2,2.7512031E3,6.726964E1,3.1650376E0,4.9669156E2,1.1270572E0,1.8050632E1,1.3284496E2,3.9655933E0,1.4406287E2,2.1729465E1,3.1232822E0,1.8353724E0,1.01738007E3,6.2816956E2,2.8800757E2,1.7785202E2,1.3626644E3,1.4434169E3,5.030714E3,4.1410596E3,2.528463E0,1.3334677E0,8.77365E0,3.1236338E1,4.6721363E1,6.407891E1,2.865019E1,6.5404495E1,4.7409424E2,1.9131811E0,4.8935146E1,2.7763638E2,2.7422583E3,8.944941E0,9.014801E0,5.825484E1,1.632775E0,1.5322626E0,3.8839728E2,1.08294304E2,8.14222E0,9.908414E0,7.765131E1,5.5193638E1,1.660748E0,2.3048453E0,2.2492779E1,1.2157009E2,1.4423754E1,7.305712E0,2.1137927E0,1.0094895E0,2.6522894E2,7.5215106E2,6.271036E2,1.0660133E0,2.3742325E2,5.058433E1,1.5297104E2,2.4880987E1,2.269865E2,1.135678E3,1.383352E3,6.006473E1,1.9772671E3,3.0534468E3,1.9427972E3,2.1982625E3,1.6562778E1,1.4673559E1,3.3353745E1,1.33676195E1,6.302168E1,1.057234E0,2.747598E1,1.1742082E0,5.0169186E1,1.5235308E1,4.694206E2,4.673652E0,1.1095775E1,3.783937E1],"tree_param":{"num_deleted":"0","num_feature":"18","num_nodes":"125","size_leaf_vector":"1"}},{"base_weights":[-2.0492559E-3,-9.002691E-1,1.6944018E-1,2.0329888E-1,-9.2250335E-1,6.56911E-2,9.219929E-1,-9.782326E-1,-4.028126E-1,9.177162E-1,2.742403E-2,1.0046701E0,8.139736E-1,1.8268591E-1,-9.8309696E-1,-2.6062882E-2,-7.854012E-1,9.19243E-1,2.9097674E-2,5.7280797E-1,-1.83913E-2,1.0340942E0,6.3245994E-1,4.055598E-1,9.2709744E-1,-1.0075421E0,-7.5691533E-1,9.060225E-2,-9.437179E-1,-9.1520315E-1,-1.5047555E-1,8.276903E-1,9.351079E-1,1.1027815E0,3.773008E-1,-9.504352E-1,2.6285017E-2,2.0734751E-1,2.3966295E-1,1.7734066E-1,2.0493431E-1,5.7387E-1,-7.589395E-2,8.221351E-1,1.032486E0,-1.0245997E0,-9.4193333E-1,-8.0398405E-1,3.2694468E-1,-1.9211735E-1,5.3333795E-1,-2.0854555E-1,6.3792884E-2,-6.2419295E-1,-1.9316117E-1,3.649441E-1,-5.342489E-1,8.5538393E-1,3.6927253E-1,3.266493E-2,9.367092E-1,1.0804404E0,3.1874523E-1,-2.1571631E0,4.207175E-1,2.3345172E-2,-1.1323237E0,-3.7712565E-1,9.893964E-2,5.688634E-1,-9.4389245E-2,1.9177051E-1,-2.353978E-2,3.9851266E-1,9.494668E-1,-2.9166073E-1,8.7914646E-1,1.5674661E-1,9.3845934E-1,1.8860845E-2,2.0707484E-1,-2.0520535E-1,-1.333003E-1,2.0533104E-1,-1.8975109E-1,-1.1455808E-1,-1.9356947E-1,-1.1684316E-1,2.3887439E-1,1.9378297E-1,-6.388404E-2,-1.7480794E-1,1.3070935E-1,1.399837E-1,-1.8934387E-1,3.514049E-1,-5.8999557E-2,-1.403402E-1,2.698576E-3,1.7279737E-1,1.2646915E-2,-1.9214658E-2,1.0403738E-1,1.8180539E-1,2.005107E-1,2.1751784E-1,-6.3654676E-2,1.05026625E-1,-8.057362E-1,4.695865E-2,1.7922975E-1,-2.1027406E-1,7.677133E-2,-2.4558334E-1,1.739485E-1,-3.567889E-2,-1.3197787E-1,1.00540735E-1,7.21946E-3,1.424187E-1,1.8830905E-2,-6.782449E-2,1.2315364E-1,1.3905519E-1,-7.920606E-2,1.9767243E-1,7.215574E-2,1.8576728E-1,-8.612509E-2,3.5208307E-2,2.1490918E-1,1.9878124E-1,-8.496039E-2,8.988204E-2,1.9823062E-1],"categories":[],"categories_nodes":[],"categories_segments":[],"categories_sizes":[],"default_left":[0,0,0,0,0,0,0,0,0,0,0,0,0,0,0,0,0,0,0,0,0,0,0,0,0,0,0,0,0,0,0,0,0,0,0,0,0,0,0,0,0,0,0,0,0,0,0,0,0,0,0,0,0,0,0,0,0,0,0,0,0,0,0,0,0,0,0,0,0,0,0,0,0,0,0,0,0,0,0,0,0,0,0,0,0,0,0,0,0,0,0,0,0,0,0,0,0,0,0,0,0,0,0,0,0,0,0,0,0,0,0,0,0,0,0,0,0,0,0,0,0,0,0,0,0,0,0,0,0,0,0,0,0,0,0],"id":12,"left_children":[1,3,5,-1,7,9,11,13,15,17,19,21,23,-1,25,27,29,31,-1,33,35,37,39,41,43,45,47,49,51,53,55,57,59,61,63,65,67,-1,69,71,-1,73,75,77,79,81,83,85,87,89,91,-1,-1,93,-1,95,97,99,101,-1,103,105,-1,107,109,111,113,115,117,119,-1,-1,121,123,125,127,129,131,133,-1,-1,-1,-1,-1,-1,-1,-1,-1,-1,-1,-1,-1,-1,-1,-1,-1,-1,-1,-1,-1,-1,-1,-1,-1,-1,-1,-1,-1,-1,-1,-1,-1,-1,-1,-1,-1,-1,-1,-1,-1,-1,-1,-1,-1,-1,-1,-1,-1,-1,-1,-1,-1,-1,-1,-1],"loss_changes":[2.989435E3,1.3353394E2,1.2722919E3,0E0,8.8697266E1,4.6696368E2,1.681482E1,2.6455566E1,4.316725E1,5.92041E-1,3.4253738E2,1.1547485E1,3.9415405E1,0E0,1.4557861E1,1.635814E1,1.2111176E1,1.1810303E-1,0E0,1.0965869E2,5.266444E2,1.9165039E0,1.4847275E1,1.5325586E1,6.6031494E0,1.829834E0,1.4255539E1,1.7096277E1,2.486906E0,1.2114029E0,5.4217215E0,9.462738E-1,4.8446655E-1,1.4125061E0,8.64718E1,1.0249182E2,3.5378613E2,0E0,1.3740582E0,6.330632E0,0E0,8.832993E0,1.0504885E1,2.635701E1,8.0267334E-1,3.232422E-1,8.061737E0,9.414978E0,1.0282E1,1.2664501E1,9.567258E0,0E0,0E0,9.663738E0,0E0,1.1424824E1,1.4359107E0,5.791092E-1,5.7130885E-1,0E0,2.645874E-2,3.11026E0,0E0,6.8677055E1,6.7440155E1,3.606047E1,9.4363464E1,1.03401276E2,2.5950665E2,1.831764E-1,0E0,0E0,6.8548026E0,2.3162506E1,6.4608765E-1,7.408E0,1.1042609E0,2.5814297E1,7.060547E0,0E0,0E0,0E0,0E0,0E0,0E0,0E0,0E0,0E0,0E0,0E0,0E0,0E0,0E0,0E0,0E0,0E0,0E0,0E0,0E0,0E0,0E0,0E0,0E0,0E0,0E0,0E0,0E0,0E0,0E0,0E0,0E0,0E0,0E0,0E0,0E0,0E0,0E0,0E0,0E0,0E0,0E0,0E0,0E0,0E0,0E0,0E0,0E0,0E0,0E0,0E0,0E0,0E0,0E0,0E0,0E0],"parents":[2147483647,0,0,1,1,2,2,4,4,5,5,6,6,7,7,8,8,9,9,10,10,11,11,12,12,14,14,15,15,16,16,17,17,19,19,20,20,21,21,22,22,23,23,24,24,25,25,26,26,27,27,28,28,29,29,30,30,31,31,32,32,33,33,34,34,35,35,36,36,38,38,39,39,41,41,42,42,43,43,44,44,45,45,46,46,47,47,48,48,49,49,50,50,53,53,55,55,56,56,57,57,58,58,60,60,61,61,63,63,64,64,65,65,66,66,67,67,68,68,69,69,72,72,73,73,74,74,75,75,76,76,77,77,78,78],"right_children":[2,4,6,-1,8,10,12,14,16,18,20,22,24,-1,26,28,30,32,-1,34,36,38,40,42,44,46,48,50,52,54,56,58,60,62,64,66,68,-1,70,72,-1,74,76,78,80,82,84,86,88,90,92,-1,-1,94,-1,96,98,100,102,-1,104,106,-1,108,110,112,114,116,118,120,-1,-1,122,124,126,128,130,132,134,-1,-1,-1,-1,-1,-1,-1,-1,-1,-1,-1,-1,-1,-1,-1,-1,-1,-1,-1,-1,-1,-1,-1,-1,-1,-1,-1,-1,-1,-1,-1,-1,-1,-1,-1,-1,-1,-1,-1,-1,-1,-1,-1,-1,-1,-1,-1,-1,-1,-1,-1,-1,-1,-1,-1,-1],"split_conditions":[1E0,1E0,1E0,2.0329888E-1,3.4E1,1E0,2E0,